digraph Tree {
node [shape=box, style="filled, rounded", color="black", fontname=helvetica] ;
edge [fontname=helvetica] ;
0 [label="sex <= 0.5\ngini = 0.471\nsamples = 916\nvalue = [569, 347]\nclass = no", fillcolor="#f5ceb2"] ;
1 [label="pclass <= 1.5\ngini = 0.402\nsamples = 316\nvalue = [88, 228]\nclass = yes", fillcolor="#85c3ef"] ;
0 -> 1 [labeldistance=2.5, labelangle=45, headlabel="True"] ;
2 [label="age <= 3.5\ngini = 0.143\nsamples = 168\nvalue = [13, 155]\nclass = yes", fillcolor="#4aa5e7"] ;
1 -> 2 ;
3 [label="pclass <= 0.5\ngini = 0.5\nsamples = 2\nvalue = [1, 1]\nclass = no", fillcolor="#ffffff"] ;
2 -> 3 ;
4 [label="gini = 0.0\nsamples = 1\nvalue = [1, 0]\nclass = no", fillcolor="#e58139"] ;
3 -> 4 ;
5 [label="gini = 0.0\nsamples = 1\nvalue = [0, 1]\nclass = yes", fillcolor="#399de5"] ;
3 -> 5 ;
6 [label="pclass <= 0.5\ngini = 0.134\nsamples = 166\nvalue = [12, 154]\nclass = yes", fillcolor="#48a5e7"] ;
2 -> 6 ;
7 [label="age <= 61.5\ngini = 0.061\nsamples = 95\nvalue = [3, 92]\nclass = yes", fillcolor="#3fa0e6"] ;
6 -> 7 ;
8 [label="gini = 0.028\nsamples = 71\nvalue = [1, 70]\nclass = yes", fillcolor="#3c9ee5"] ;
7 -> 8 ;
9 [label="gini = 0.153\nsamples = 24\nvalue = [2, 22]\nclass = yes", fillcolor="#4ba6e7"] ;
7 -> 9 ;
10 [label="age <= 25.5\ngini = 0.221\nsamples = 71\nvalue = [9, 62]\nclass = yes", fillcolor="#56abe9"] ;
6 -> 10 ;
11 [label="gini = 0.091\nsamples = 21\nvalue = [1, 20]\nclass = yes", fillcolor="#43a2e6"] ;
10 -> 11 ;
12 [label="gini = 0.269\nsamples = 50\nvalue = [8, 42]\nclass = yes", fillcolor="#5fb0ea"] ;
10 -> 12 ;
13 [label="age <= 24.5\ngini = 0.5\nsamples = 148\nvalue = [75, 73]\nclass = no", fillcolor="#fefcfa"] ;
1 -> 13 ;
14 [label="sibsp <= 1.5\ngini = 0.457\nsamples = 48\nvalue = [17, 31]\nclass = yes", fillcolor="#a6d3f3"] ;
13 -> 14 ;
15 [label="age <= 6.0\ngini = 0.422\nsamples = 43\nvalue = [13, 30]\nclass = yes", fillcolor="#8fc7f0"] ;
14 -> 15 ;
16 [label="gini = 0.444\nsamples = 3\nvalue = [2, 1]\nclass = no", fillcolor="#f2c09c"] ;
15 -> 16 ;
17 [label="gini = 0.399\nsamples = 40\nvalue = [11, 29]\nclass = yes", fillcolor="#84c2ef"] ;
15 -> 17 ;
18 [label="sibsp <= 3.5\ngini = 0.32\nsamples = 5\nvalue = [4, 1]\nclass = no", fillcolor="#eca06a"] ;
14 -> 18 ;
19 [label="gini = 0.0\nsamples = 3\nvalue = [3, 0]\nclass = no", fillcolor="#e58139"] ;
18 -> 19 ;
20 [label="gini = 0.5\nsamples = 2\nvalue = [1, 1]\nclass = no", fillcolor="#ffffff"] ;
18 -> 20 ;
21 [label="sibsp <= 4.5\ngini = 0.487\nsamples = 100\nvalue = [58, 42]\nclass = no", fillcolor="#f8dcc8"] ;
13 -> 21 ;
22 [label="age <= 213.0\ngini = 0.493\nsamples = 95\nvalue = [53, 42]\nclass = no", fillcolor="#fae5d6"] ;
21 -> 22 ;
23 [label="gini = 0.464\nsamples = 71\nvalue = [45, 26]\nclass = no", fillcolor="#f4caab"] ;
22 -> 23 ;
24 [label="gini = 0.444\nsamples = 24\nvalue = [8, 16]\nclass = yes", fillcolor="#9ccef2"] ;
22 -> 24 ;
25 [label="gini = 0.0\nsamples = 5\nvalue = [5, 0]\nclass = no", fillcolor="#e58139"] ;
21 -> 25 ;
26 [label="pclass <= 0.5\ngini = 0.318\nsamples = 600\nvalue = [481, 119]\nclass = no", fillcolor="#eba06a"] ;
0 -> 26 [labeldistance=2.5, labelangle=-45, headlabel="False"] ;
27 [label="sibsp <= 1.5\ngini = 0.449\nsamples = 135\nvalue = [89, 46]\nclass = no", fillcolor="#f2c29f"] ;
26 -> 27 ;
28 [label="age <= 307.0\ngini = 0.443\nsamples = 133\nvalue = [89, 44]\nclass = no", fillcolor="#f2bf9b"] ;
27 -> 28 ;
29 [label="age <= 192.5\ngini = 0.439\nsamples = 132\nvalue = [89, 43]\nclass = no", fillcolor="#f2be99"] ;
28 -> 29 ;
30 [label="gini = 0.446\nsamples = 128\nvalue = [85, 43]\nclass = no", fillcolor="#f2c19d"] ;
29 -> 30 ;
31 [label="gini = 0.0\nsamples = 4\nvalue = [4, 0]\nclass = no", fillcolor="#e58139"] ;
29 -> 31 ;
32 [label="gini = 0.0\nsamples = 1\nvalue = [0, 1]\nclass = yes", fillcolor="#399de5"] ;
28 -> 32 ;
33 [label="gini = 0.0\nsamples = 2\nvalue = [0, 2]\nclass = yes", fillcolor="#399de5"] ;
27 -> 33 ;
34 [label="age <= 336.0\ngini = 0.265\nsamples = 465\nvalue = [392, 73]\nclass = no", fillcolor="#ea985e"] ;
26 -> 34 ;
35 [label="age <= 42.5\ngini = 0.258\nsamples = 454\nvalue = [385, 69]\nclass = no", fillcolor="#ea985c"] ;
34 -> 35 ;
36 [label="age <= 34.5\ngini = 0.304\nsamples = 241\nvalue = [196, 45]\nclass = no", fillcolor="#eb9e66"] ;
35 -> 36 ;
37 [label="gini = 0.248\nsamples = 200\nvalue = [171, 29]\nclass = no", fillcolor="#e9965b"] ;
36 -> 37 ;
38 [label="gini = 0.476\nsamples = 41\nvalue = [25, 16]\nclass = no", fillcolor="#f6d2b8"] ;
36 -> 38 ;
39 [label="age <= 103.0\ngini = 0.2\nsamples = 213\nvalue = [189, 24]\nclass = no", fillcolor="#e89152"] ;
35 -> 39 ;
40 [label="gini = 0.108\nsamples = 87\nvalue = [82, 5]\nclass = no", fillcolor="#e78945"] ;
39 -> 40 ;
41 [label="gini = 0.256\nsamples = 126\nvalue = [107, 19]\nclass = no", fillcolor="#ea975c"] ;
39 -> 41 ;
42 [label="age <= 347.5\ngini = 0.463\nsamples = 11\nvalue = [7, 4]\nclass = no", fillcolor="#f4c9aa"] ;
34 -> 42 ;
43 [label="gini = 0.0\nsamples = 4\nvalue = [0, 4]\nclass = yes", fillcolor="#399de5"] ;
42 -> 43 ;
44 [label="gini = 0.0\nsamples = 7\nvalue = [7, 0]\nclass = no", fillcolor="#e58139"] ;
42 -> 44 ;
}