digraph Tree {
node [shape=box, style="filled, rounded", color="black", fontname=helvetica] ;
edge [fontname=helvetica] ;
0 [label="sex <= 0.5\ngini = 0.472\nsamples = 916\nvalue = [566, 350]\nclass = no", fillcolor="#f5cfb3"] ;
1 [label="pclass <= 1.5\ngini = 0.395\nsamples = 325\nvalue = [88, 237]\nclass = yes", fillcolor="#83c1ef"] ;
0 -> 1 [labeldistance=2.5, labelangle=45, headlabel="True"] ;
2 [label="age <= 6.0\ngini = 0.11\nsamples = 172\nvalue = [10, 162]\nclass = yes", fillcolor="#45a3e7"] ;
1 -> 2 ;
3 [label="pclass <= 0.5\ngini = 0.5\nsamples = 2\nvalue = [1, 1]\nclass = no", fillcolor="#ffffff"] ;
2 -> 3 ;
4 [label="gini = 0.0\nsamples = 1\nvalue = [1, 0]\nclass = no", fillcolor="#e58139"] ;
3 -> 4 ;
5 [label="gini = 0.0\nsamples = 1\nvalue = [0, 1]\nclass = yes", fillcolor="#399de5"] ;
3 -> 5 ;
6 [label="pclass <= 0.5\ngini = 0.1\nsamples = 170\nvalue = [9, 161]\nclass = yes", fillcolor="#44a2e6"] ;
2 -> 6 ;
7 [label="age <= 73.5\ngini = 0.04\nsamples = 99\nvalue = [2, 97]\nclass = yes", fillcolor="#3d9fe6"] ;
6 -> 7 ;
8 [label="age <= 25.5\ngini = 0.022\nsamples = 90\nvalue = [1, 89]\nclass = yes", fillcolor="#3b9ee5"] ;
7 -> 8 ;
9 [label="age <= 24.5\ngini = 0.074\nsamples = 26\nvalue = [1, 25]\nclass = yes", fillcolor="#41a1e6"] ;
8 -> 9 ;
10 [label="gini = 0.0\nsamples = 24\nvalue = [0, 24]\nclass = yes", fillcolor="#399de5"] ;
9 -> 10 ;
11 [label="gini = 0.5\nsamples = 2\nvalue = [1, 1]\nclass = no", fillcolor="#ffffff"] ;
9 -> 11 ;
12 [label="gini = 0.0\nsamples = 64\nvalue = [0, 64]\nclass = yes", fillcolor="#399de5"] ;
8 -> 12 ;
13 [label="age <= 74.5\ngini = 0.198\nsamples = 9\nvalue = [1, 8]\nclass = yes", fillcolor="#52a9e8"] ;
7 -> 13 ;
14 [label="gini = 0.0\nsamples = 1\nvalue = [1, 0]\nclass = no", fillcolor="#e58139"] ;
13 -> 14 ;
15 [label="gini = 0.0\nsamples = 8\nvalue = [0, 8]\nclass = yes", fillcolor="#399de5"] ;
13 -> 15 ;
16 [label="age <= 140.0\ngini = 0.178\nsamples = 71\nvalue = [7, 64]\nclass = yes", fillcolor="#4fa8e8"] ;
6 -> 16 ;
17 [label="age <= 92.5\ngini = 0.159\nsamples = 69\nvalue = [6, 63]\nclass = yes", fillcolor="#4ca6e7"] ;
16 -> 17 ;
18 [label="age <= 77.0\ngini = 0.185\nsamples = 58\nvalue = [6, 52]\nclass = yes", fillcolor="#50a8e8"] ;
17 -> 18 ;
19 [label="age <= 22.5\ngini = 0.16\nsamples = 57\nvalue = [5, 52]\nclass = yes", fillcolor="#4ca6e8"] ;
18 -> 19 ;
20 [label="age <= 21.5\ngini = 0.26\nsamples = 13\nvalue = [2, 11]\nclass = yes", fillcolor="#5dafea"] ;
19 -> 20 ;
21 [label="sibsp <= 0.5\ngini = 0.165\nsamples = 11\nvalue = [1, 10]\nclass = yes", fillcolor="#4da7e8"] ;
20 -> 21 ;
22 [label="gini = 0.0\nsamples = 7\nvalue = [0, 7]\nclass = yes", fillcolor="#399de5"] ;
21 -> 22 ;
23 [label="age <= 17.0\ngini = 0.375\nsamples = 4\nvalue = [1, 3]\nclass = yes", fillcolor="#7bbeee"] ;
21 -> 23 ;
24 [label="gini = 0.0\nsamples = 3\nvalue = [0, 3]\nclass = yes", fillcolor="#399de5"] ;
23 -> 24 ;
25 [label="gini = 0.0\nsamples = 1\nvalue = [1, 0]\nclass = no", fillcolor="#e58139"] ;
23 -> 25 ;
26 [label="gini = 0.5\nsamples = 2\nvalue = [1, 1]\nclass = no", fillcolor="#ffffff"] ;
20 -> 26 ;
27 [label="age <= 28.5\ngini = 0.127\nsamples = 44\nvalue = [3, 41]\nclass = yes", fillcolor="#47a4e7"] ;
19 -> 27 ;
28 [label="gini = 0.0\nsamples = 16\nvalue = [0, 16]\nclass = yes", fillcolor="#399de5"] ;
27 -> 28 ;
29 [label="age <= 56.5\ngini = 0.191\nsamples = 28\nvalue = [3, 25]\nclass = yes", fillcolor="#51a9e8"] ;
27 -> 29 ;
30 [label="age <= 55.0\ngini = 0.245\nsamples = 21\nvalue = [3, 18]\nclass = yes", fillcolor="#5aade9"] ;
29 -> 30 ;
31 [label="age <= 51.0\ngini = 0.18\nsamples = 20\nvalue = [2, 18]\nclass = yes", fillcolor="#4fa8e8"] ;
30 -> 31 ;
32 [label="age <= 49.0\ngini = 0.231\nsamples = 15\nvalue = [2, 13]\nclass = yes", fillcolor="#57ace9"] ;
31 -> 32 ;
33 [label="age <= 31.5\ngini = 0.133\nsamples = 14\nvalue = [1, 13]\nclass = yes", fillcolor="#48a5e7"] ;
32 -> 33 ;
34 [label="sibsp <= 0.5\ngini = 0.278\nsamples = 6\nvalue = [1, 5]\nclass = yes", fillcolor="#61b1ea"] ;
33 -> 34 ;
35 [label="gini = 0.0\nsamples = 2\nvalue = [0, 2]\nclass = yes", fillcolor="#399de5"] ;
34 -> 35 ;
36 [label="gini = 0.375\nsamples = 4\nvalue = [1, 3]\nclass = yes", fillcolor="#7bbeee"] ;
34 -> 36 ;
37 [label="gini = 0.0\nsamples = 8\nvalue = [0, 8]\nclass = yes", fillcolor="#399de5"] ;
33 -> 37 ;
38 [label="gini = 0.0\nsamples = 1\nvalue = [1, 0]\nclass = no", fillcolor="#e58139"] ;
32 -> 38 ;
39 [label="gini = 0.0\nsamples = 5\nvalue = [0, 5]\nclass = yes", fillcolor="#399de5"] ;
31 -> 39 ;
40 [label="gini = 0.0\nsamples = 1\nvalue = [1, 0]\nclass = no", fillcolor="#e58139"] ;
30 -> 40 ;
41 [label="gini = 0.0\nsamples = 7\nvalue = [0, 7]\nclass = yes", fillcolor="#399de5"] ;
29 -> 41 ;
42 [label="gini = 0.0\nsamples = 1\nvalue = [1, 0]\nclass = no", fillcolor="#e58139"] ;
18 -> 42 ;
43 [label="gini = 0.0\nsamples = 11\nvalue = [0, 11]\nclass = yes", fillcolor="#399de5"] ;
17 -> 43 ;
44 [label="age <= 240.5\ngini = 0.5\nsamples = 2\nvalue = [1, 1]\nclass = no", fillcolor="#ffffff"] ;
16 -> 44 ;
45 [label="gini = 0.0\nsamples = 1\nvalue = [1, 0]\nclass = no", fillcolor="#e58139"] ;
44 -> 45 ;
46 [label="gini = 0.0\nsamples = 1\nvalue = [0, 1]\nclass = yes", fillcolor="#399de5"] ;
44 -> 46 ;
47 [label="sibsp <= 2.5\ngini = 0.5\nsamples = 153\nvalue = [78, 75]\nclass = no", fillcolor="#fefaf7"] ;
1 -> 47 ;
48 [label="age <= 203.5\ngini = 0.497\nsamples = 140\nvalue = [65, 75]\nclass = yes", fillcolor="#e5f2fc"] ;
47 -> 48 ;
49 [label="age <= 24.5\ngini = 0.5\nsamples = 105\nvalue = [54, 51]\nclass = no", fillcolor="#fef8f4"] ;
48 -> 49 ;
50 [label="age <= 6.0\ngini = 0.465\nsamples = 38\nvalue = [14, 24]\nclass = yes", fillcolor="#acd6f4"] ;
49 -> 50 ;
51 [label="gini = 0.0\nsamples = 2\nvalue = [2, 0]\nclass = no", fillcolor="#e58139"] ;
50 -> 51 ;
52 [label="sibsp <= 1.5\ngini = 0.444\nsamples = 36\nvalue = [12, 24]\nclass = yes", fillcolor="#9ccef2"] ;
50 -> 52 ;
53 [label="age <= 18.5\ngini = 0.415\nsamples = 34\nvalue = [10, 24]\nclass = yes", fillcolor="#8bc6f0"] ;
52 -> 53 ;
54 [label="gini = 0.0\nsamples = 6\nvalue = [0, 6]\nclass = yes", fillcolor="#399de5"] ;
53 -> 54 ;
55 [label="age <= 23.5\ngini = 0.459\nsamples = 28\nvalue = [10, 18]\nclass = yes", fillcolor="#a7d3f3"] ;
53 -> 55 ;
56 [label="age <= 20.5\ngini = 0.48\nsamples = 25\nvalue = [10, 15]\nclass = yes", fillcolor="#bddef6"] ;
55 -> 56 ;
57 [label="sibsp <= 0.5\ngini = 0.42\nsamples = 10\nvalue = [3, 7]\nclass = yes", fillcolor="#8ec7f0"] ;
56 -> 57 ;
58 [label="age <= 19.5\ngini = 0.375\nsamples = 8\nvalue = [2, 6]\nclass = yes", fillcolor="#7bbeee"] ;
57 -> 58 ;
59 [label="gini = 0.408\nsamples = 7\nvalue = [2, 5]\nclass = yes", fillcolor="#88c4ef"] ;
58 -> 59 ;
60 [label="gini = 0.0\nsamples = 1\nvalue = [0, 1]\nclass = yes", fillcolor="#399de5"] ;
58 -> 60 ;
61 [label="gini = 0.5\nsamples = 2\nvalue = [1, 1]\nclass = no", fillcolor="#ffffff"] ;
57 -> 61 ;
62 [label="age <= 21.5\ngini = 0.498\nsamples = 15\nvalue = [7, 8]\nclass = yes", fillcolor="#e6f3fc"] ;
56 -> 62 ;
63 [label="sibsp <= 0.5\ngini = 0.444\nsamples = 3\nvalue = [2, 1]\nclass = no", fillcolor="#f2c09c"] ;
62 -> 63 ;
64 [label="gini = 0.5\nsamples = 2\nvalue = [1, 1]\nclass = no", fillcolor="#ffffff"] ;
63 -> 64 ;
65 [label="gini = 0.0\nsamples = 1\nvalue = [1, 0]\nclass = no", fillcolor="#e58139"] ;
63 -> 65 ;
66 [label="sibsp <= 0.5\ngini = 0.486\nsamples = 12\nvalue = [5, 7]\nclass = yes", fillcolor="#c6e3f8"] ;
62 -> 66 ;
67 [label="age <= 22.5\ngini = 0.5\nsamples = 10\nvalue = [5, 5]\nclass = no", fillcolor="#ffffff"] ;
66 -> 67 ;
68 [label="gini = 0.48\nsamples = 5\nvalue = [3, 2]\nclass = no", fillcolor="#f6d5bd"] ;
67 -> 68 ;
69 [label="gini = 0.48\nsamples = 5\nvalue = [2, 3]\nclass = yes", fillcolor="#bddef6"] ;
67 -> 69 ;
70 [label="gini = 0.0\nsamples = 2\nvalue = [0, 2]\nclass = yes", fillcolor="#399de5"] ;
66 -> 70 ;
71 [label="gini = 0.0\nsamples = 3\nvalue = [0, 3]\nclass = yes", fillcolor="#399de5"] ;
55 -> 71 ;
72 [label="gini = 0.0\nsamples = 2\nvalue = [2, 0]\nclass = no", fillcolor="#e58139"] ;
52 -> 72 ;
73 [label="age <= 35.5\ngini = 0.481\nsamples = 67\nvalue = [40, 27]\nclass = no", fillcolor="#f7d6bf"] ;
49 -> 73 ;
74 [label="sibsp <= 0.5\ngini = 0.408\nsamples = 21\nvalue = [15, 6]\nclass = no", fillcolor="#efb388"] ;
73 -> 74 ;
75 [label="age <= 25.5\ngini = 0.469\nsamples = 16\nvalue = [10, 6]\nclass = no", fillcolor="#f5cdb0"] ;
74 -> 75 ;
76 [label="gini = 0.0\nsamples = 1\nvalue = [1, 0]\nclass = no", fillcolor="#e58139"] ;
75 -> 76 ;
77 [label="age <= 27.5\ngini = 0.48\nsamples = 15\nvalue = [9, 6]\nclass = no", fillcolor="#f6d5bd"] ;
75 -> 77 ;
78 [label="age <= 26.5\ngini = 0.48\nsamples = 5\nvalue = [2, 3]\nclass = yes", fillcolor="#bddef6"] ;
77 -> 78 ;
79 [label="gini = 0.5\nsamples = 2\nvalue = [1, 1]\nclass = no", fillcolor="#ffffff"] ;
78 -> 79 ;
80 [label="gini = 0.444\nsamples = 3\nvalue = [1, 2]\nclass = yes", fillcolor="#9ccef2"] ;
78 -> 80 ;
81 [label="age <= 28.5\ngini = 0.42\nsamples = 10\nvalue = [7, 3]\nclass = no", fillcolor="#f0b78e"] ;
77 -> 81 ;
82 [label="gini = 0.0\nsamples = 2\nvalue = [2, 0]\nclass = no", fillcolor="#e58139"] ;
81 -> 82 ;
83 [label="age <= 32.0\ngini = 0.469\nsamples = 8\nvalue = [5, 3]\nclass = no", fillcolor="#f5cdb0"] ;
81 -> 83 ;
84 [label="age <= 29.5\ngini = 0.444\nsamples = 6\nvalue = [4, 2]\nclass = no", fillcolor="#f2c09c"] ;
83 -> 84 ;
85 [label="gini = 0.444\nsamples = 3\nvalue = [2, 1]\nclass = no", fillcolor="#f2c09c"] ;
84 -> 85 ;
86 [label="gini = 0.444\nsamples = 3\nvalue = [2, 1]\nclass = no", fillcolor="#f2c09c"] ;
84 -> 86 ;
87 [label="gini = 0.5\nsamples = 2\nvalue = [1, 1]\nclass = no", fillcolor="#ffffff"] ;
83 -> 87 ;
88 [label="gini = 0.0\nsamples = 5\nvalue = [5, 0]\nclass = no", fillcolor="#e58139"] ;
74 -> 88 ;
89 [label="age <= 40.0\ngini = 0.496\nsamples = 46\nvalue = [25, 21]\nclass = no", fillcolor="#fbebdf"] ;
73 -> 89 ;
90 [label="gini = 0.0\nsamples = 4\nvalue = [0, 4]\nclass = yes", fillcolor="#399de5"] ;
89 -> 90 ;
91 [label="age <= 58.0\ngini = 0.482\nsamples = 42\nvalue = [25, 17]\nclass = no", fillcolor="#f7d7c0"] ;
89 -> 91 ;
92 [label="age <= 50.5\ngini = 0.415\nsamples = 17\nvalue = [12, 5]\nclass = no", fillcolor="#f0b58b"] ;
91 -> 92 ;
93 [label="sibsp <= 0.5\ngini = 0.5\nsamples = 8\nvalue = [4, 4]\nclass = no", fillcolor="#ffffff"] ;
92 -> 93 ;
94 [label="age <= 47.5\ngini = 0.32\nsamples = 5\nvalue = [4, 1]\nclass = no", fillcolor="#eca06a"] ;
93 -> 94 ;
95 [label="gini = 0.0\nsamples = 2\nvalue = [2, 0]\nclass = no", fillcolor="#e58139"] ;
94 -> 95 ;
96 [label="age <= 48.5\ngini = 0.444\nsamples = 3\nvalue = [2, 1]\nclass = no", fillcolor="#f2c09c"] ;
94 -> 96 ;
97 [label="gini = 0.5\nsamples = 2\nvalue = [1, 1]\nclass = no", fillcolor="#ffffff"] ;
96 -> 97 ;
98 [label="gini = 0.0\nsamples = 1\nvalue = [1, 0]\nclass = no", fillcolor="#e58139"] ;
96 -> 98 ;
99 [label="gini = 0.0\nsamples = 3\nvalue = [0, 3]\nclass = yes", fillcolor="#399de5"] ;
93 -> 99 ;
100 [label="age <= 56.0\ngini = 0.198\nsamples = 9\nvalue = [8, 1]\nclass = no", fillcolor="#e89152"] ;
92 -> 100 ;
101 [label="gini = 0.0\nsamples = 5\nvalue = [5, 0]\nclass = no", fillcolor="#e58139"] ;
100 -> 101 ;
102 [label="sibsp <= 0.5\ngini = 0.375\nsamples = 4\nvalue = [3, 1]\nclass = no", fillcolor="#eeab7b"] ;
100 -> 102 ;
103 [label="gini = 0.444\nsamples = 3\nvalue = [2, 1]\nclass = no", fillcolor="#f2c09c"] ;
102 -> 103 ;
104 [label="gini = 0.0\nsamples = 1\nvalue = [1, 0]\nclass = no", fillcolor="#e58139"] ;
102 -> 104 ;
105 [label="age <= 94.5\ngini = 0.499\nsamples = 25\nvalue = [13, 12]\nclass = no", fillcolor="#fdf5f0"] ;
91 -> 105 ;
106 [label="age <= 67.0\ngini = 0.32\nsamples = 5\nvalue = [1, 4]\nclass = yes", fillcolor="#6ab6ec"] ;
105 -> 106 ;
107 [label="age <= 59.5\ngini = 0.5\nsamples = 2\nvalue = [1, 1]\nclass = no", fillcolor="#ffffff"] ;
106 -> 107 ;
108 [label="gini = 0.0\nsamples = 1\nvalue = [0, 1]\nclass = yes", fillcolor="#399de5"] ;
107 -> 108 ;
109 [label="gini = 0.0\nsamples = 1\nvalue = [1, 0]\nclass = no", fillcolor="#e58139"] ;
107 -> 109 ;
110 [label="gini = 0.0\nsamples = 3\nvalue = [0, 3]\nclass = yes", fillcolor="#399de5"] ;
106 -> 110 ;
111 [label="age <= 153.0\ngini = 0.48\nsamples = 20\nvalue = [12, 8]\nclass = no", fillcolor="#f6d5bd"] ;
105 -> 111 ;
112 [label="age <= 137.0\ngini = 0.5\nsamples = 10\nvalue = [5, 5]\nclass = no", fillcolor="#ffffff"] ;
111 -> 112 ;
113 [label="sibsp <= 1.5\ngini = 0.469\nsamples = 8\nvalue = [5, 3]\nclass = no", fillcolor="#f5cdb0"] ;
112 -> 113 ;
114 [label="age <= 100.5\ngini = 0.49\nsamples = 7\nvalue = [4, 3]\nclass = no", fillcolor="#f8e0ce"] ;
113 -> 114 ;
115 [label="gini = 0.0\nsamples = 1\nvalue = [1, 0]\nclass = no", fillcolor="#e58139"] ;
114 -> 115 ;
116 [label="age <= 107.0\ngini = 0.5\nsamples = 6\nvalue = [3, 3]\nclass = no", fillcolor="#ffffff"] ;
114 -> 116 ;
117 [label="gini = 0.0\nsamples = 1\nvalue = [0, 1]\nclass = yes", fillcolor="#399de5"] ;
116 -> 117 ;
118 [label="age <= 130.0\ngini = 0.48\nsamples = 5\nvalue = [3, 2]\nclass = no", fillcolor="#f6d5bd"] ;
116 -> 118 ;
119 [label="age <= 127.0\ngini = 0.5\nsamples = 4\nvalue = [2, 2]\nclass = no", fillcolor="#ffffff"] ;
118 -> 119 ;
120 [label="sibsp <= 0.5\ngini = 0.444\nsamples = 3\nvalue = [2, 1]\nclass = no", fillcolor="#f2c09c"] ;
119 -> 120 ;
121 [label="gini = 0.0\nsamples = 1\nvalue = [1, 0]\nclass = no", fillcolor="#e58139"] ;
120 -> 121 ;
122 [label="gini = 0.5\nsamples = 2\nvalue = [1, 1]\nclass = no", fillcolor="#ffffff"] ;
120 -> 122 ;
123 [label="gini = 0.0\nsamples = 1\nvalue = [0, 1]\nclass = yes", fillcolor="#399de5"] ;
119 -> 123 ;
124 [label="gini = 0.0\nsamples = 1\nvalue = [1, 0]\nclass = no", fillcolor="#e58139"] ;
118 -> 124 ;
125 [label="gini = 0.0\nsamples = 1\nvalue = [1, 0]\nclass = no", fillcolor="#e58139"] ;
113 -> 125 ;
126 [label="gini = 0.0\nsamples = 2\nvalue = [0, 2]\nclass = yes", fillcolor="#399de5"] ;
112 -> 126 ;
127 [label="age <= 168.0\ngini = 0.42\nsamples = 10\nvalue = [7, 3]\nclass = no", fillcolor="#f0b78e"] ;
111 -> 127 ;
128 [label="gini = 0.0\nsamples = 3\nvalue = [3, 0]\nclass = no", fillcolor="#e58139"] ;
127 -> 128 ;
129 [label="sibsp <= 0.5\ngini = 0.49\nsamples = 7\nvalue = [4, 3]\nclass = no", fillcolor="#f8e0ce"] ;
127 -> 129 ;
130 [label="age <= 181.0\ngini = 0.444\nsamples = 6\nvalue = [4, 2]\nclass = no", fillcolor="#f2c09c"] ;
129 -> 130 ;
131 [label="gini = 0.0\nsamples = 2\nvalue = [2, 0]\nclass = no", fillcolor="#e58139"] ;
130 -> 131 ;
132 [label="age <= 183.0\ngini = 0.5\nsamples = 4\nvalue = [2, 2]\nclass = no", fillcolor="#ffffff"] ;
130 -> 132 ;
133 [label="gini = 0.0\nsamples = 1\nvalue = [0, 1]\nclass = yes", fillcolor="#399de5"] ;
132 -> 133 ;
134 [label="age <= 191.5\ngini = 0.444\nsamples = 3\nvalue = [2, 1]\nclass = no", fillcolor="#f2c09c"] ;
132 -> 134 ;
135 [label="gini = 0.0\nsamples = 1\nvalue = [1, 0]\nclass = no", fillcolor="#e58139"] ;
134 -> 135 ;
136 [label="age <= 201.0\ngini = 0.5\nsamples = 2\nvalue = [1, 1]\nclass = no", fillcolor="#ffffff"] ;
134 -> 136 ;
137 [label="gini = 0.0\nsamples = 1\nvalue = [0, 1]\nclass = yes", fillcolor="#399de5"] ;
136 -> 137 ;
138 [label="gini = 0.0\nsamples = 1\nvalue = [1, 0]\nclass = no", fillcolor="#e58139"] ;
136 -> 138 ;
139 [label="gini = 0.0\nsamples = 1\nvalue = [0, 1]\nclass = yes", fillcolor="#399de5"] ;
129 -> 139 ;
140 [label="age <= 222.0\ngini = 0.431\nsamples = 35\nvalue = [11, 24]\nclass = yes", fillcolor="#94caf1"] ;
48 -> 140 ;
141 [label="gini = 0.0\nsamples = 6\nvalue = [0, 6]\nclass = yes", fillcolor="#399de5"] ;
140 -> 141 ;
142 [label="age <= 244.0\ngini = 0.471\nsamples = 29\nvalue = [11, 18]\nclass = yes", fillcolor="#b2d9f5"] ;
140 -> 142 ;
143 [label="sibsp <= 0.5\ngini = 0.32\nsamples = 5\nvalue = [4, 1]\nclass = no", fillcolor="#eca06a"] ;
142 -> 143 ;
144 [label="age <= 233.0\ngini = 0.444\nsamples = 3\nvalue = [2, 1]\nclass = no", fillcolor="#f2c09c"] ;
143 -> 144 ;
145 [label="gini = 0.0\nsamples = 2\nvalue = [2, 0]\nclass = no", fillcolor="#e58139"] ;
144 -> 145 ;
146 [label="gini = 0.0\nsamples = 1\nvalue = [0, 1]\nclass = yes", fillcolor="#399de5"] ;
144 -> 146 ;
147 [label="gini = 0.0\nsamples = 2\nvalue = [2, 0]\nclass = no", fillcolor="#e58139"] ;
143 -> 147 ;
148 [label="age <= 262.0\ngini = 0.413\nsamples = 24\nvalue = [7, 17]\nclass = yes", fillcolor="#8bc5f0"] ;
142 -> 148 ;
149 [label="gini = 0.0\nsamples = 4\nvalue = [0, 4]\nclass = yes", fillcolor="#399de5"] ;
148 -> 149 ;
150 [label="age <= 318.0\ngini = 0.455\nsamples = 20\nvalue = [7, 13]\nclass = yes", fillcolor="#a4d2f3"] ;
148 -> 150 ;
151 [label="age <= 307.0\ngini = 0.494\nsamples = 9\nvalue = [5, 4]\nclass = no", fillcolor="#fae6d7"] ;
150 -> 151 ;
152 [label="age <= 264.5\ngini = 0.49\nsamples = 7\nvalue = [3, 4]\nclass = yes", fillcolor="#cee6f8"] ;
151 -> 152 ;
153 [label="gini = 0.0\nsamples = 1\nvalue = [1, 0]\nclass = no", fillcolor="#e58139"] ;
152 -> 153 ;
154 [label="sibsp <= 0.5\ngini = 0.444\nsamples = 6\nvalue = [2, 4]\nclass = yes", fillcolor="#9ccef2"] ;
152 -> 154 ;
155 [label="age <= 267.0\ngini = 0.48\nsamples = 5\nvalue = [2, 3]\nclass = yes", fillcolor="#bddef6"] ;
154 -> 155 ;
156 [label="gini = 0.0\nsamples = 1\nvalue = [0, 1]\nclass = yes", fillcolor="#399de5"] ;
155 -> 156 ;
157 [label="age <= 278.0\ngini = 0.5\nsamples = 4\nvalue = [2, 2]\nclass = no", fillcolor="#ffffff"] ;
155 -> 157 ;
158 [label="gini = 0.0\nsamples = 1\nvalue = [1, 0]\nclass = no", fillcolor="#e58139"] ;
157 -> 158 ;
159 [label="age <= 287.5\ngini = 0.444\nsamples = 3\nvalue = [1, 2]\nclass = yes", fillcolor="#9ccef2"] ;
157 -> 159 ;
160 [label="gini = 0.0\nsamples = 1\nvalue = [0, 1]\nclass = yes", fillcolor="#399de5"] ;
159 -> 160 ;
161 [label="age <= 294.0\ngini = 0.5\nsamples = 2\nvalue = [1, 1]\nclass = no", fillcolor="#ffffff"] ;
159 -> 161 ;
162 [label="gini = 0.0\nsamples = 1\nvalue = [1, 0]\nclass = no", fillcolor="#e58139"] ;
161 -> 162 ;
163 [label="gini = 0.0\nsamples = 1\nvalue = [0, 1]\nclass = yes", fillcolor="#399de5"] ;
161 -> 163 ;
164 [label="gini = 0.0\nsamples = 1\nvalue = [0, 1]\nclass = yes", fillcolor="#399de5"] ;
154 -> 164 ;
165 [label="gini = 0.0\nsamples = 2\nvalue = [2, 0]\nclass = no", fillcolor="#e58139"] ;
151 -> 165 ;
166 [label="age <= 346.5\ngini = 0.298\nsamples = 11\nvalue = [2, 9]\nclass = yes", fillcolor="#65b3eb"] ;
150 -> 166 ;
167 [label="age <= 330.5\ngini = 0.198\nsamples = 9\nvalue = [1, 8]\nclass = yes", fillcolor="#52a9e8"] ;
166 -> 167 ;
168 [label="age <= 323.5\ngini = 0.444\nsamples = 3\nvalue = [1, 2]\nclass = yes", fillcolor="#9ccef2"] ;
167 -> 168 ;
169 [label="gini = 0.0\nsamples = 2\nvalue = [0, 2]\nclass = yes", fillcolor="#399de5"] ;
168 -> 169 ;
170 [label="gini = 0.0\nsamples = 1\nvalue = [1, 0]\nclass = no", fillcolor="#e58139"] ;
168 -> 170 ;
171 [label="gini = 0.0\nsamples = 6\nvalue = [0, 6]\nclass = yes", fillcolor="#399de5"] ;
167 -> 171 ;
172 [label="age <= 352.5\ngini = 0.5\nsamples = 2\nvalue = [1, 1]\nclass = no", fillcolor="#ffffff"] ;
166 -> 172 ;
173 [label="gini = 0.0\nsamples = 1\nvalue = [1, 0]\nclass = no", fillcolor="#e58139"] ;
172 -> 173 ;
174 [label="gini = 0.0\nsamples = 1\nvalue = [0, 1]\nclass = yes", fillcolor="#399de5"] ;
172 -> 174 ;
175 [label="gini = 0.0\nsamples = 13\nvalue = [13, 0]\nclass = no", fillcolor="#e58139"] ;
47 -> 175 ;
176 [label="pclass <= 0.5\ngini = 0.309\nsamples = 591\nvalue = [478, 113]\nclass = no", fillcolor="#eb9f68"] ;
0 -> 176 [labeldistance=2.5, labelangle=-45, headlabel="False"] ;
177 [label="age <= 308.5\ngini = 0.455\nsamples = 120\nvalue = [78, 42]\nclass = no", fillcolor="#f3c5a4"] ;
176 -> 177 ;
178 [label="age <= 65.5\ngini = 0.448\nsamples = 118\nvalue = [78, 40]\nclass = no", fillcolor="#f2c29f"] ;
177 -> 178 ;
179 [label="age <= 63.5\ngini = 0.475\nsamples = 90\nvalue = [55, 35]\nclass = no", fillcolor="#f6d1b7"] ;
178 -> 179 ;
180 [label="sibsp <= 0.5\ngini = 0.465\nsamples = 87\nvalue = [55, 32]\nclass = no", fillcolor="#f4caac"] ;
179 -> 180 ;
181 [label="age <= 48.5\ngini = 0.419\nsamples = 57\nvalue = [40, 17]\nclass = no", fillcolor="#f0b78d"] ;
180 -> 181 ;
182 [label="age <= 33.5\ngini = 0.463\nsamples = 33\nvalue = [21, 12]\nclass = no", fillcolor="#f4c9aa"] ;
181 -> 182 ;
183 [label="age <= 28.5\ngini = 0.351\nsamples = 22\nvalue = [17, 5]\nclass = no", fillcolor="#eda673"] ;
182 -> 183 ;
184 [label="age <= 27.5\ngini = 0.415\nsamples = 17\nvalue = [12, 5]\nclass = no", fillcolor="#f0b58b"] ;
183 -> 184 ;
185 [label="age <= 2.0\ngini = 0.375\nsamples = 16\nvalue = [12, 4]\nclass = no", fillcolor="#eeab7b"] ;
184 -> 185 ;
186 [label="age <= 0.5\ngini = 0.5\nsamples = 2\nvalue = [1, 1]\nclass = no", fillcolor="#ffffff"] ;
185 -> 186 ;
187 [label="gini = 0.0\nsamples = 1\nvalue = [1, 0]\nclass = no", fillcolor="#e58139"] ;
186 -> 187 ;
188 [label="gini = 0.0\nsamples = 1\nvalue = [0, 1]\nclass = yes", fillcolor="#399de5"] ;
186 -> 188 ;
189 [label="age <= 9.5\ngini = 0.337\nsamples = 14\nvalue = [11, 3]\nclass = no", fillcolor="#eca36f"] ;
185 -> 189 ;
190 [label="gini = 0.0\nsamples = 4\nvalue = [4, 0]\nclass = no", fillcolor="#e58139"] ;
189 -> 190 ;
191 [label="age <= 14.0\ngini = 0.42\nsamples = 10\nvalue = [7, 3]\nclass = no", fillcolor="#f0b78e"] ;
189 -> 191 ;
192 [label="gini = 0.0\nsamples = 1\nvalue = [0, 1]\nclass = yes", fillcolor="#399de5"] ;
191 -> 192 ;
193 [label="age <= 26.0\ngini = 0.346\nsamples = 9\nvalue = [7, 2]\nclass = no", fillcolor="#eca572"] ;
191 -> 193 ;
194 [label="age <= 23.5\ngini = 0.245\nsamples = 7\nvalue = [6, 1]\nclass = no", fillcolor="#e9965a"] ;
193 -> 194 ;
195 [label="age <= 22.0\ngini = 0.375\nsamples = 4\nvalue = [3, 1]\nclass = no", fillcolor="#eeab7b"] ;
194 -> 195 ;
196 [label="gini = 0.0\nsamples = 2\nvalue = [2, 0]\nclass = no", fillcolor="#e58139"] ;
195 -> 196 ;
197 [label="gini = 0.5\nsamples = 2\nvalue = [1, 1]\nclass = no", fillcolor="#ffffff"] ;
195 -> 197 ;
198 [label="gini = 0.0\nsamples = 3\nvalue = [3, 0]\nclass = no", fillcolor="#e58139"] ;
194 -> 198 ;
199 [label="gini = 0.5\nsamples = 2\nvalue = [1, 1]\nclass = no", fillcolor="#ffffff"] ;
193 -> 199 ;
200 [label="gini = 0.0\nsamples = 1\nvalue = [0, 1]\nclass = yes", fillcolor="#399de5"] ;
184 -> 200 ;
201 [label="gini = 0.0\nsamples = 5\nvalue = [5, 0]\nclass = no", fillcolor="#e58139"] ;
183 -> 201 ;
202 [label="age <= 35.5\ngini = 0.463\nsamples = 11\nvalue = [4, 7]\nclass = yes", fillcolor="#aad5f4"] ;
182 -> 202 ;
203 [label="gini = 0.0\nsamples = 2\nvalue = [0, 2]\nclass = yes", fillcolor="#399de5"] ;
202 -> 203 ;
204 [label="age <= 41.5\ngini = 0.494\nsamples = 9\nvalue = [4, 5]\nclass = yes", fillcolor="#d7ebfa"] ;
202 -> 204 ;
205 [label="gini = 0.0\nsamples = 2\nvalue = [2, 0]\nclass = no", fillcolor="#e58139"] ;
204 -> 205 ;
206 [label="age <= 47.5\ngini = 0.408\nsamples = 7\nvalue = [2, 5]\nclass = yes", fillcolor="#88c4ef"] ;
204 -> 206 ;
207 [label="gini = 0.0\nsamples = 3\nvalue = [0, 3]\nclass = yes", fillcolor="#399de5"] ;
206 -> 207 ;
208 [label="gini = 0.5\nsamples = 4\nvalue = [2, 2]\nclass = no", fillcolor="#ffffff"] ;
206 -> 208 ;
209 [label="age <= 59.5\ngini = 0.33\nsamples = 24\nvalue = [19, 5]\nclass = no", fillcolor="#eca26d"] ;
181 -> 209 ;
210 [label="age <= 57.5\ngini = 0.266\nsamples = 19\nvalue = [16, 3]\nclass = no", fillcolor="#ea995e"] ;
209 -> 210 ;
211 [label="age <= 51.5\ngini = 0.375\nsamples = 12\nvalue = [9, 3]\nclass = no", fillcolor="#eeab7b"] ;
210 -> 211 ;
212 [label="gini = 0.0\nsamples = 3\nvalue = [3, 0]\nclass = no", fillcolor="#e58139"] ;
211 -> 212 ;
213 [label="age <= 52.5\ngini = 0.444\nsamples = 9\nvalue = [6, 3]\nclass = no", fillcolor="#f2c09c"] ;
211 -> 213 ;
214 [label="gini = 0.5\nsamples = 2\nvalue = [1, 1]\nclass = no", fillcolor="#ffffff"] ;
213 -> 214 ;
215 [label="age <= 55.5\ngini = 0.408\nsamples = 7\nvalue = [5, 2]\nclass = no", fillcolor="#efb388"] ;
213 -> 215 ;
216 [label="age <= 53.5\ngini = 0.32\nsamples = 5\nvalue = [4, 1]\nclass = no", fillcolor="#eca06a"] ;
215 -> 216 ;
217 [label="gini = 0.0\nsamples = 1\nvalue = [1, 0]\nclass = no", fillcolor="#e58139"] ;
216 -> 217 ;
218 [label="gini = 0.375\nsamples = 4\nvalue = [3, 1]\nclass = no", fillcolor="#eeab7b"] ;
216 -> 218 ;
219 [label="gini = 0.5\nsamples = 2\nvalue = [1, 1]\nclass = no", fillcolor="#ffffff"] ;
215 -> 219 ;
220 [label="gini = 0.0\nsamples = 7\nvalue = [7, 0]\nclass = no", fillcolor="#e58139"] ;
210 -> 220 ;
221 [label="age <= 61.5\ngini = 0.48\nsamples = 5\nvalue = [3, 2]\nclass = no", fillcolor="#f6d5bd"] ;
209 -> 221 ;
222 [label="age <= 60.5\ngini = 0.444\nsamples = 3\nvalue = [1, 2]\nclass = yes", fillcolor="#9ccef2"] ;
221 -> 222 ;
223 [label="gini = 0.0\nsamples = 1\nvalue = [0, 1]\nclass = yes", fillcolor="#399de5"] ;
222 -> 223 ;
224 [label="gini = 0.5\nsamples = 2\nvalue = [1, 1]\nclass = no", fillcolor="#ffffff"] ;
222 -> 224 ;
225 [label="gini = 0.0\nsamples = 2\nvalue = [2, 0]\nclass = no", fillcolor="#e58139"] ;
221 -> 225 ;
226 [label="age <= 16.5\ngini = 0.5\nsamples = 30\nvalue = [15, 15]\nclass = no", fillcolor="#ffffff"] ;
180 -> 226 ;
227 [label="gini = 0.0\nsamples = 2\nvalue = [0, 2]\nclass = yes", fillcolor="#399de5"] ;
226 -> 227 ;
228 [label="age <= 22.0\ngini = 0.497\nsamples = 28\nvalue = [15, 13]\nclass = no", fillcolor="#fceee5"] ;
226 -> 228 ;
229 [label="gini = 0.0\nsamples = 2\nvalue = [2, 0]\nclass = no", fillcolor="#e58139"] ;
228 -> 229 ;
230 [label="age <= 26.0\ngini = 0.5\nsamples = 26\nvalue = [13, 13]\nclass = no", fillcolor="#ffffff"] ;
228 -> 230 ;
231 [label="gini = 0.0\nsamples = 2\nvalue = [0, 2]\nclass = yes", fillcolor="#399de5"] ;
230 -> 231 ;
232 [label="age <= 48.5\ngini = 0.497\nsamples = 24\nvalue = [13, 11]\nclass = no", fillcolor="#fbece1"] ;
230 -> 232 ;
233 [label="age <= 29.5\ngini = 0.48\nsamples = 5\nvalue = [2, 3]\nclass = yes", fillcolor="#bddef6"] ;
232 -> 233 ;
234 [label="age <= 28.0\ngini = 0.444\nsamples = 3\nvalue = [2, 1]\nclass = no", fillcolor="#f2c09c"] ;
233 -> 234 ;
235 [label="gini = 0.5\nsamples = 2\nvalue = [1, 1]\nclass = no", fillcolor="#ffffff"] ;
234 -> 235 ;
236 [label="gini = 0.0\nsamples = 1\nvalue = [1, 0]\nclass = no", fillcolor="#e58139"] ;
234 -> 236 ;
237 [label="gini = 0.0\nsamples = 2\nvalue = [0, 2]\nclass = yes", fillcolor="#399de5"] ;
233 -> 237 ;
238 [label="age <= 49.5\ngini = 0.488\nsamples = 19\nvalue = [11, 8]\nclass = no", fillcolor="#f8ddc9"] ;
232 -> 238 ;
239 [label="gini = 0.0\nsamples = 2\nvalue = [2, 0]\nclass = no", fillcolor="#e58139"] ;
238 -> 239 ;
240 [label="age <= 50.5\ngini = 0.498\nsamples = 17\nvalue = [9, 8]\nclass = no", fillcolor="#fcf1e9"] ;
238 -> 240 ;
241 [label="gini = 0.0\nsamples = 1\nvalue = [0, 1]\nclass = yes", fillcolor="#399de5"] ;
240 -> 241 ;
242 [label="age <= 53.5\ngini = 0.492\nsamples = 16\nvalue = [9, 7]\nclass = no", fillcolor="#f9e3d3"] ;
240 -> 242 ;
243 [label="gini = 0.0\nsamples = 2\nvalue = [2, 0]\nclass = no", fillcolor="#e58139"] ;
242 -> 243 ;
244 [label="age <= 55.5\ngini = 0.5\nsamples = 14\nvalue = [7, 7]\nclass = no", fillcolor="#ffffff"] ;
242 -> 244 ;
245 [label="gini = 0.0\nsamples = 2\nvalue = [0, 2]\nclass = yes", fillcolor="#399de5"] ;
244 -> 245 ;
246 [label="age <= 59.5\ngini = 0.486\nsamples = 12\nvalue = [7, 5]\nclass = no", fillcolor="#f8dbc6"] ;
244 -> 246 ;
247 [label="age <= 57.5\ngini = 0.32\nsamples = 5\nvalue = [4, 1]\nclass = no", fillcolor="#eca06a"] ;
246 -> 247 ;
248 [label="sibsp <= 1.5\ngini = 0.444\nsamples = 3\nvalue = [2, 1]\nclass = no", fillcolor="#f2c09c"] ;
247 -> 248 ;
249 [label="gini = 0.5\nsamples = 2\nvalue = [1, 1]\nclass = no", fillcolor="#ffffff"] ;
248 -> 249 ;
250 [label="gini = 0.0\nsamples = 1\nvalue = [1, 0]\nclass = no", fillcolor="#e58139"] ;
248 -> 250 ;
251 [label="gini = 0.0\nsamples = 2\nvalue = [2, 0]\nclass = no", fillcolor="#e58139"] ;
247 -> 251 ;
252 [label="age <= 60.5\ngini = 0.49\nsamples = 7\nvalue = [3, 4]\nclass = yes", fillcolor="#cee6f8"] ;
246 -> 252 ;
253 [label="gini = 0.0\nsamples = 2\nvalue = [0, 2]\nclass = yes", fillcolor="#399de5"] ;
252 -> 253 ;
254 [label="sibsp <= 1.5\ngini = 0.48\nsamples = 5\nvalue = [3, 2]\nclass = no", fillcolor="#f6d5bd"] ;
252 -> 254 ;
255 [label="age <= 61.5\ngini = 0.375\nsamples = 4\nvalue = [3, 1]\nclass = no", fillcolor="#eeab7b"] ;
254 -> 255 ;
256 [label="gini = 0.5\nsamples = 2\nvalue = [1, 1]\nclass = no", fillcolor="#ffffff"] ;
255 -> 256 ;
257 [label="gini = 0.0\nsamples = 2\nvalue = [2, 0]\nclass = no", fillcolor="#e58139"] ;
255 -> 257 ;
258 [label="gini = 0.0\nsamples = 1\nvalue = [0, 1]\nclass = yes", fillcolor="#399de5"] ;
254 -> 258 ;
259 [label="gini = 0.0\nsamples = 3\nvalue = [0, 3]\nclass = yes", fillcolor="#399de5"] ;
179 -> 259 ;
260 [label="age <= 164.5\ngini = 0.293\nsamples = 28\nvalue = [23, 5]\nclass = no", fillcolor="#eb9c64"] ;
178 -> 260 ;
261 [label="sibsp <= 0.5\ngini = 0.165\nsamples = 22\nvalue = [20, 2]\nclass = no", fillcolor="#e88e4d"] ;
260 -> 261 ;
262 [label="age <= 68.5\ngini = 0.231\nsamples = 15\nvalue = [13, 2]\nclass = no", fillcolor="#e99457"] ;
261 -> 262 ;
263 [label="age <= 67.0\ngini = 0.375\nsamples = 4\nvalue = [3, 1]\nclass = no", fillcolor="#eeab7b"] ;
262 -> 263 ;
264 [label="gini = 0.0\nsamples = 2\nvalue = [2, 0]\nclass = no", fillcolor="#e58139"] ;
263 -> 264 ;
265 [label="gini = 0.5\nsamples = 2\nvalue = [1, 1]\nclass = no", fillcolor="#ffffff"] ;
263 -> 265 ;
266 [label="age <= 80.0\ngini = 0.165\nsamples = 11\nvalue = [10, 1]\nclass = no", fillcolor="#e88e4d"] ;
262 -> 266 ;
267 [label="gini = 0.0\nsamples = 7\nvalue = [7, 0]\nclass = no", fillcolor="#e58139"] ;
266 -> 267 ;
268 [label="age <= 85.0\ngini = 0.375\nsamples = 4\nvalue = [3, 1]\nclass = no", fillcolor="#eeab7b"] ;
266 -> 268 ;
269 [label="gini = 0.0\nsamples = 1\nvalue = [0, 1]\nclass = yes", fillcolor="#399de5"] ;
268 -> 269 ;
270 [label="gini = 0.0\nsamples = 3\nvalue = [3, 0]\nclass = no", fillcolor="#e58139"] ;
268 -> 270 ;
271 [label="gini = 0.0\nsamples = 7\nvalue = [7, 0]\nclass = no", fillcolor="#e58139"] ;
261 -> 271 ;
272 [label="age <= 292.0\ngini = 0.5\nsamples = 6\nvalue = [3, 3]\nclass = no", fillcolor="#ffffff"] ;
260 -> 272 ;
273 [label="gini = 0.0\nsamples = 3\nvalue = [0, 3]\nclass = yes", fillcolor="#399de5"] ;
272 -> 273 ;
274 [label="gini = 0.0\nsamples = 3\nvalue = [3, 0]\nclass = no", fillcolor="#e58139"] ;
272 -> 274 ;
275 [label="gini = 0.0\nsamples = 2\nvalue = [0, 2]\nclass = yes", fillcolor="#399de5"] ;
177 -> 275 ;
276 [label="age <= 42.5\ngini = 0.256\nsamples = 471\nvalue = [400, 71]\nclass = no", fillcolor="#ea975c"] ;
176 -> 276 ;
277 [label="age <= 37.0\ngini = 0.295\nsamples = 250\nvalue = [205, 45]\nclass = no", fillcolor="#eb9d64"] ;
276 -> 277 ;
278 [label="age <= 20.5\ngini = 0.268\nsamples = 232\nvalue = [195, 37]\nclass = no", fillcolor="#ea995f"] ;
277 -> 278 ;
279 [label="age <= 15.5\ngini = 0.137\nsamples = 54\nvalue = [50, 4]\nclass = no", fillcolor="#e78b49"] ;
278 -> 279 ;
280 [label="sibsp <= 2.0\ngini = 0.298\nsamples = 11\nvalue = [9, 2]\nclass = no", fillcolor="#eb9d65"] ;
279 -> 280 ;
281 [label="age <= 10.5\ngini = 0.5\nsamples = 4\nvalue = [2, 2]\nclass = no", fillcolor="#ffffff"] ;
280 -> 281 ;
282 [label="gini = 0.0\nsamples = 1\nvalue = [0, 1]\nclass = yes", fillcolor="#399de5"] ;
281 -> 282 ;
283 [label="age <= 14.5\ngini = 0.444\nsamples = 3\nvalue = [2, 1]\nclass = no", fillcolor="#f2c09c"] ;
281 -> 283 ;
284 [label="gini = 0.0\nsamples = 2\nvalue = [2, 0]\nclass = no", fillcolor="#e58139"] ;
283 -> 284 ;
285 [label="gini = 0.0\nsamples = 1\nvalue = [0, 1]\nclass = yes", fillcolor="#399de5"] ;
283 -> 285 ;
286 [label="gini = 0.0\nsamples = 7\nvalue = [7, 0]\nclass = no", fillcolor="#e58139"] ;
280 -> 286 ;
287 [label="age <= 18.5\ngini = 0.089\nsamples = 43\nvalue = [41, 2]\nclass = no", fillcolor="#e68743"] ;
279 -> 287 ;
288 [label="gini = 0.0\nsamples = 15\nvalue = [15, 0]\nclass = no", fillcolor="#e58139"] ;
287 -> 288 ;
289 [label="pclass <= 1.5\ngini = 0.133\nsamples = 28\nvalue = [26, 2]\nclass = no", fillcolor="#e78b48"] ;
287 -> 289 ;
290 [label="gini = 0.0\nsamples = 8\nvalue = [8, 0]\nclass = no", fillcolor="#e58139"] ;
289 -> 290 ;
291 [label="sibsp <= 0.5\ngini = 0.18\nsamples = 20\nvalue = [18, 2]\nclass = no", fillcolor="#e88f4f"] ;
289 -> 291 ;
292 [label="age <= 19.5\ngini = 0.219\nsamples = 16\nvalue = [14, 2]\nclass = no", fillcolor="#e99355"] ;
291 -> 292 ;
293 [label="gini = 0.278\nsamples = 6\nvalue = [5, 1]\nclass = no", fillcolor="#ea9a61"] ;
292 -> 293 ;
294 [label="gini = 0.18\nsamples = 10\nvalue = [9, 1]\nclass = no", fillcolor="#e88f4f"] ;
292 -> 294 ;
295 [label="gini = 0.0\nsamples = 4\nvalue = [4, 0]\nclass = no", fillcolor="#e58139"] ;
291 -> 295 ;
296 [label="age <= 35.5\ngini = 0.302\nsamples = 178\nvalue = [145, 33]\nclass = no", fillcolor="#eb9e66"] ;
278 -> 296 ;
297 [label="sibsp <= 0.5\ngini = 0.313\nsamples = 170\nvalue = [137, 33]\nclass = no", fillcolor="#eb9f69"] ;
296 -> 297 ;
298 [label="age <= 28.5\ngini = 0.339\nsamples = 134\nvalue = [105, 29]\nclass = no", fillcolor="#eca470"] ;
297 -> 298 ;
299 [label="age <= 26.5\ngini = 0.302\nsamples = 97\nvalue = [79, 18]\nclass = no", fillcolor="#eb9e66"] ;
298 -> 299 ;
300 [label="pclass <= 1.5\ngini = 0.347\nsamples = 76\nvalue = [59, 17]\nclass = no", fillcolor="#eca572"] ;
299 -> 300 ;
301 [label="age <= 22.5\ngini = 0.208\nsamples = 17\nvalue = [15, 2]\nclass = no", fillcolor="#e89253"] ;
300 -> 301 ;
302 [label="age <= 21.5\ngini = 0.5\nsamples = 2\nvalue = [1, 1]\nclass = no", fillcolor="#ffffff"] ;
301 -> 302 ;
303 [label="gini = 0.0\nsamples = 1\nvalue = [1, 0]\nclass = no", fillcolor="#e58139"] ;
302 -> 303 ;
304 [label="gini = 0.0\nsamples = 1\nvalue = [0, 1]\nclass = yes", fillcolor="#399de5"] ;
302 -> 304 ;
305 [label="age <= 24.5\ngini = 0.124\nsamples = 15\nvalue = [14, 1]\nclass = no", fillcolor="#e78a47"] ;
301 -> 305 ;
306 [label="age <= 23.5\ngini = 0.219\nsamples = 8\nvalue = [7, 1]\nclass = no", fillcolor="#e99355"] ;
305 -> 306 ;
307 [label="gini = 0.0\nsamples = 6\nvalue = [6, 0]\nclass = no", fillcolor="#e58139"] ;
306 -> 307 ;
308 [label="gini = 0.5\nsamples = 2\nvalue = [1, 1]\nclass = no", fillcolor="#ffffff"] ;
306 -> 308 ;
309 [label="gini = 0.0\nsamples = 7\nvalue = [7, 0]\nclass = no", fillcolor="#e58139"] ;
305 -> 309 ;
310 [label="age <= 24.5\ngini = 0.379\nsamples = 59\nvalue = [44, 15]\nclass = no", fillcolor="#eeac7c"] ;
300 -> 310 ;
311 [label="age <= 21.5\ngini = 0.308\nsamples = 42\nvalue = [34, 8]\nclass = no", fillcolor="#eb9f68"] ;
310 -> 311 ;
312 [label="gini = 0.375\nsamples = 16\nvalue = [12, 4]\nclass = no", fillcolor="#eeab7b"] ;
311 -> 312 ;
313 [label="age <= 22.5\ngini = 0.26\nsamples = 26\nvalue = [22, 4]\nclass = no", fillcolor="#ea985d"] ;
311 -> 313 ;
314 [label="gini = 0.298\nsamples = 11\nvalue = [9, 2]\nclass = no", fillcolor="#eb9d65"] ;
313 -> 314 ;
315 [label="age <= 23.5\ngini = 0.231\nsamples = 15\nvalue = [13, 2]\nclass = no", fillcolor="#e99457"] ;
313 -> 315 ;
316 [label="gini = 0.0\nsamples = 4\nvalue = [4, 0]\nclass = no", fillcolor="#e58139"] ;
315 -> 316 ;
317 [label="gini = 0.298\nsamples = 11\nvalue = [9, 2]\nclass = no", fillcolor="#eb9d65"] ;
315 -> 317 ;
318 [label="age <= 25.5\ngini = 0.484\nsamples = 17\nvalue = [10, 7]\nclass = no", fillcolor="#f7d9c4"] ;
310 -> 318 ;
319 [label="gini = 0.496\nsamples = 11\nvalue = [6, 5]\nclass = no", fillcolor="#fbeade"] ;
318 -> 319 ;
320 [label="gini = 0.444\nsamples = 6\nvalue = [4, 2]\nclass = no", fillcolor="#f2c09c"] ;
318 -> 320 ;
321 [label="age <= 27.5\ngini = 0.091\nsamples = 21\nvalue = [20, 1]\nclass = no", fillcolor="#e68743"] ;
299 -> 321 ;
322 [label="pclass <= 1.5\ngini = 0.198\nsamples = 9\nvalue = [8, 1]\nclass = no", fillcolor="#e89152"] ;
321 -> 322 ;
323 [label="gini = 0.0\nsamples = 2\nvalue = [2, 0]\nclass = no", fillcolor="#e58139"] ;
322 -> 323 ;
324 [label="gini = 0.245\nsamples = 7\nvalue = [6, 1]\nclass = no", fillcolor="#e9965a"] ;
322 -> 324 ;
325 [label="gini = 0.0\nsamples = 12\nvalue = [12, 0]\nclass = no", fillcolor="#e58139"] ;
321 -> 325 ;
326 [label="age <= 29.5\ngini = 0.418\nsamples = 37\nvalue = [26, 11]\nclass = no", fillcolor="#f0b68d"] ;
298 -> 326 ;
327 [label="pclass <= 1.5\ngini = 0.5\nsamples = 8\nvalue = [4, 4]\nclass = no", fillcolor="#ffffff"] ;
326 -> 327 ;
328 [label="gini = 0.0\nsamples = 1\nvalue = [0, 1]\nclass = yes", fillcolor="#399de5"] ;
327 -> 328 ;
329 [label="gini = 0.49\nsamples = 7\nvalue = [4, 3]\nclass = no", fillcolor="#f8e0ce"] ;
327 -> 329 ;
330 [label="age <= 32.0\ngini = 0.366\nsamples = 29\nvalue = [22, 7]\nclass = no", fillcolor="#eda978"] ;
326 -> 330 ;
331 [label="pclass <= 1.5\ngini = 0.278\nsamples = 12\nvalue = [10, 2]\nclass = no", fillcolor="#ea9a61"] ;
330 -> 331 ;
332 [label="gini = 0.32\nsamples = 5\nvalue = [4, 1]\nclass = no", fillcolor="#eca06a"] ;
331 -> 332 ;
333 [label="gini = 0.245\nsamples = 7\nvalue = [6, 1]\nclass = no", fillcolor="#e9965a"] ;
331 -> 333 ;
334 [label="age <= 34.5\ngini = 0.415\nsamples = 17\nvalue = [12, 5]\nclass = no", fillcolor="#f0b58b"] ;
330 -> 334 ;
335 [label="pclass <= 1.5\ngini = 0.444\nsamples = 6\nvalue = [4, 2]\nclass = no", fillcolor="#f2c09c"] ;
334 -> 335 ;
336 [label="gini = 0.5\nsamples = 2\nvalue = [1, 1]\nclass = no", fillcolor="#ffffff"] ;
335 -> 336 ;
337 [label="gini = 0.375\nsamples = 4\nvalue = [3, 1]\nclass = no", fillcolor="#eeab7b"] ;
335 -> 337 ;
338 [label="pclass <= 1.5\ngini = 0.397\nsamples = 11\nvalue = [8, 3]\nclass = no", fillcolor="#efb083"] ;
334 -> 338 ;
339 [label="gini = 0.0\nsamples = 2\nvalue = [2, 0]\nclass = no", fillcolor="#e58139"] ;
338 -> 339 ;
340 [label="gini = 0.444\nsamples = 9\nvalue = [6, 3]\nclass = no", fillcolor="#f2c09c"] ;
338 -> 340 ;
341 [label="sibsp <= 2.5\ngini = 0.198\nsamples = 36\nvalue = [32, 4]\nclass = no", fillcolor="#e89152"] ;
297 -> 341 ;
342 [label="age <= 34.5\ngini = 0.161\nsamples = 34\nvalue = [31, 3]\nclass = no", fillcolor="#e88d4c"] ;
341 -> 342 ;
343 [label="age <= 26.5\ngini = 0.121\nsamples = 31\nvalue = [29, 2]\nclass = no", fillcolor="#e78a47"] ;
342 -> 343 ;
344 [label="age <= 24.5\ngini = 0.208\nsamples = 17\nvalue = [15, 2]\nclass = no", fillcolor="#e89253"] ;
343 -> 344 ;
345 [label="gini = 0.0\nsamples = 12\nvalue = [12, 0]\nclass = no", fillcolor="#e58139"] ;
344 -> 345 ;
346 [label="pclass <= 1.5\ngini = 0.48\nsamples = 5\nvalue = [3, 2]\nclass = no", fillcolor="#f6d5bd"] ;
344 -> 346 ;
347 [label="gini = 0.0\nsamples = 1\nvalue = [0, 1]\nclass = yes", fillcolor="#399de5"] ;
346 -> 347 ;
348 [label="age <= 25.5\ngini = 0.375\nsamples = 4\nvalue = [3, 1]\nclass = no", fillcolor="#eeab7b"] ;
346 -> 348 ;
349 [label="gini = 0.0\nsamples = 1\nvalue = [0, 1]\nclass = yes", fillcolor="#399de5"] ;
348 -> 349 ;
350 [label="gini = 0.0\nsamples = 3\nvalue = [3, 0]\nclass = no", fillcolor="#e58139"] ;
348 -> 350 ;
351 [label="gini = 0.0\nsamples = 14\nvalue = [14, 0]\nclass = no", fillcolor="#e58139"] ;
343 -> 351 ;
352 [label="sibsp <= 1.5\ngini = 0.444\nsamples = 3\nvalue = [2, 1]\nclass = no", fillcolor="#f2c09c"] ;
342 -> 352 ;
353 [label="pclass <= 1.5\ngini = 0.5\nsamples = 2\nvalue = [1, 1]\nclass = no", fillcolor="#ffffff"] ;
352 -> 353 ;
354 [label="gini = 0.0\nsamples = 1\nvalue = [0, 1]\nclass = yes", fillcolor="#399de5"] ;
353 -> 354 ;
355 [label="gini = 0.0\nsamples = 1\nvalue = [1, 0]\nclass = no", fillcolor="#e58139"] ;
353 -> 355 ;
356 [label="gini = 0.0\nsamples = 1\nvalue = [1, 0]\nclass = no", fillcolor="#e58139"] ;
352 -> 356 ;
357 [label="age <= 31.5\ngini = 0.5\nsamples = 2\nvalue = [1, 1]\nclass = no", fillcolor="#ffffff"] ;
341 -> 357 ;
358 [label="gini = 0.0\nsamples = 1\nvalue = [0, 1]\nclass = yes", fillcolor="#399de5"] ;
357 -> 358 ;
359 [label="gini = 0.0\nsamples = 1\nvalue = [1, 0]\nclass = no", fillcolor="#e58139"] ;
357 -> 359 ;
360 [label="gini = 0.0\nsamples = 8\nvalue = [8, 0]\nclass = no", fillcolor="#e58139"] ;
296 -> 360 ;
361 [label="pclass <= 1.5\ngini = 0.494\nsamples = 18\nvalue = [10, 8]\nclass = no", fillcolor="#fae6d7"] ;
277 -> 361 ;
362 [label="gini = 0.0\nsamples = 4\nvalue = [0, 4]\nclass = yes", fillcolor="#399de5"] ;
361 -> 362 ;
363 [label="age <= 39.5\ngini = 0.408\nsamples = 14\nvalue = [10, 4]\nclass = no", fillcolor="#efb388"] ;
361 -> 363 ;
364 [label="age <= 38.5\ngini = 0.444\nsamples = 3\nvalue = [1, 2]\nclass = yes", fillcolor="#9ccef2"] ;
363 -> 364 ;
365 [label="gini = 0.0\nsamples = 1\nvalue = [1, 0]\nclass = no", fillcolor="#e58139"] ;
364 -> 365 ;
366 [label="gini = 0.0\nsamples = 2\nvalue = [0, 2]\nclass = yes", fillcolor="#399de5"] ;
364 -> 366 ;
367 [label="age <= 41.5\ngini = 0.298\nsamples = 11\nvalue = [9, 2]\nclass = no", fillcolor="#eb9d65"] ;
363 -> 367 ;
368 [label="gini = 0.0\nsamples = 2\nvalue = [2, 0]\nclass = no", fillcolor="#e58139"] ;
367 -> 368 ;
369 [label="gini = 0.346\nsamples = 9\nvalue = [7, 2]\nclass = no", fillcolor="#eca572"] ;
367 -> 369 ;
370 [label="age <= 103.5\ngini = 0.208\nsamples = 221\nvalue = [195, 26]\nclass = no", fillcolor="#e89253"] ;
276 -> 370 ;
371 [label="age <= 55.5\ngini = 0.046\nsamples = 84\nvalue = [82, 2]\nclass = no", fillcolor="#e6843e"] ;
370 -> 371 ;
372 [label="gini = 0.0\nsamples = 49\nvalue = [49, 0]\nclass = no", fillcolor="#e58139"] ;
371 -> 372 ;
373 [label="age <= 58.0\ngini = 0.108\nsamples = 35\nvalue = [33, 2]\nclass = no", fillcolor="#e78945"] ;
371 -> 373 ;
374 [label="age <= 56.5\ngini = 0.48\nsamples = 5\nvalue = [3, 2]\nclass = no", fillcolor="#f6d5bd"] ;
373 -> 374 ;
375 [label="gini = 0.444\nsamples = 3\nvalue = [2, 1]\nclass = no", fillcolor="#f2c09c"] ;
374 -> 375 ;
376 [label="gini = 0.5\nsamples = 2\nvalue = [1, 1]\nclass = no", fillcolor="#ffffff"] ;
374 -> 376 ;
377 [label="gini = 0.0\nsamples = 30\nvalue = [30, 0]\nclass = no", fillcolor="#e58139"] ;
373 -> 377 ;
378 [label="age <= 109.5\ngini = 0.289\nsamples = 137\nvalue = [113, 24]\nclass = no", fillcolor="#eb9c63"] ;
370 -> 378 ;
379 [label="sibsp <= 3.5\ngini = 0.408\nsamples = 7\nvalue = [2, 5]\nclass = yes", fillcolor="#88c4ef"] ;
378 -> 379 ;
380 [label="age <= 107.5\ngini = 0.278\nsamples = 6\nvalue = [1, 5]\nclass = yes", fillcolor="#61b1ea"] ;
379 -> 380 ;
381 [label="age <= 105.5\ngini = 0.5\nsamples = 2\nvalue = [1, 1]\nclass = no", fillcolor="#ffffff"] ;
380 -> 381 ;
382 [label="gini = 0.0\nsamples = 1\nvalue = [0, 1]\nclass = yes", fillcolor="#399de5"] ;
381 -> 382 ;
383 [label="gini = 0.0\nsamples = 1\nvalue = [1, 0]\nclass = no", fillcolor="#e58139"] ;
381 -> 383 ;
384 [label="gini = 0.0\nsamples = 4\nvalue = [0, 4]\nclass = yes", fillcolor="#399de5"] ;
380 -> 384 ;
385 [label="gini = 0.0\nsamples = 1\nvalue = [1, 0]\nclass = no", fillcolor="#e58139"] ;
379 -> 385 ;
386 [label="pclass <= 1.5\ngini = 0.25\nsamples = 130\nvalue = [111, 19]\nclass = no", fillcolor="#e9975b"] ;
378 -> 386 ;
387 [label="age <= 288.5\ngini = 0.469\nsamples = 16\nvalue = [10, 6]\nclass = no", fillcolor="#f5cdb0"] ;
386 -> 387 ;
388 [label="age <= 163.5\ngini = 0.444\nsamples = 15\nvalue = [10, 5]\nclass = no", fillcolor="#f2c09c"] ;
387 -> 388 ;
389 [label="age <= 152.0\ngini = 0.496\nsamples = 11\nvalue = [6, 5]\nclass = no", fillcolor="#fbeade"] ;
388 -> 389 ;
390 [label="age <= 131.0\ngini = 0.444\nsamples = 9\nvalue = [6, 3]\nclass = no", fillcolor="#f2c09c"] ;
389 -> 390 ;
391 [label="age <= 116.0\ngini = 0.49\nsamples = 7\nvalue = [4, 3]\nclass = no", fillcolor="#f8e0ce"] ;
390 -> 391 ;
392 [label="sibsp <= 0.5\ngini = 0.32\nsamples = 5\nvalue = [4, 1]\nclass = no", fillcolor="#eca06a"] ;
391 -> 392 ;
393 [label="gini = 0.5\nsamples = 2\nvalue = [1, 1]\nclass = no", fillcolor="#ffffff"] ;
392 -> 393 ;
394 [label="gini = 0.0\nsamples = 3\nvalue = [3, 0]\nclass = no", fillcolor="#e58139"] ;
392 -> 394 ;
395 [label="gini = 0.0\nsamples = 2\nvalue = [0, 2]\nclass = yes", fillcolor="#399de5"] ;
391 -> 395 ;
396 [label="gini = 0.0\nsamples = 2\nvalue = [2, 0]\nclass = no", fillcolor="#e58139"] ;
390 -> 396 ;
397 [label="gini = 0.0\nsamples = 2\nvalue = [0, 2]\nclass = yes", fillcolor="#399de5"] ;
389 -> 397 ;
398 [label="gini = 0.0\nsamples = 4\nvalue = [4, 0]\nclass = no", fillcolor="#e58139"] ;
388 -> 398 ;
399 [label="gini = 0.0\nsamples = 1\nvalue = [0, 1]\nclass = yes", fillcolor="#399de5"] ;
387 -> 399 ;
400 [label="age <= 222.5\ngini = 0.202\nsamples = 114\nvalue = [101, 13]\nclass = no", fillcolor="#e89152"] ;
386 -> 400 ;
401 [label="age <= 117.5\ngini = 0.109\nsamples = 52\nvalue = [49, 3]\nclass = no", fillcolor="#e78945"] ;
400 -> 401 ;
402 [label="age <= 116.0\ngini = 0.375\nsamples = 8\nvalue = [6, 2]\nclass = no", fillcolor="#eeab7b"] ;
401 -> 402 ;
403 [label="sibsp <= 0.5\ngini = 0.245\nsamples = 7\nvalue = [6, 1]\nclass = no", fillcolor="#e9965a"] ;
402 -> 403 ;
404 [label="gini = 0.0\nsamples = 5\nvalue = [5, 0]\nclass = no", fillcolor="#e58139"] ;
403 -> 404 ;
405 [label="age <= 112.0\ngini = 0.5\nsamples = 2\nvalue = [1, 1]\nclass = no", fillcolor="#ffffff"] ;
403 -> 405 ;
406 [label="gini = 0.0\nsamples = 1\nvalue = [1, 0]\nclass = no", fillcolor="#e58139"] ;
405 -> 406 ;
407 [label="gini = 0.0\nsamples = 1\nvalue = [0, 1]\nclass = yes", fillcolor="#399de5"] ;
405 -> 407 ;
408 [label="gini = 0.0\nsamples = 1\nvalue = [0, 1]\nclass = yes", fillcolor="#399de5"] ;
402 -> 408 ;
409 [label="age <= 162.5\ngini = 0.044\nsamples = 44\nvalue = [43, 1]\nclass = no", fillcolor="#e6843e"] ;
401 -> 409 ;
410 [label="gini = 0.0\nsamples = 25\nvalue = [25, 0]\nclass = no", fillcolor="#e58139"] ;
409 -> 410 ;
411 [label="age <= 165.5\ngini = 0.1\nsamples = 19\nvalue = [18, 1]\nclass = no", fillcolor="#e68844"] ;
409 -> 411 ;
412 [label="gini = 0.0\nsamples = 1\nvalue = [0, 1]\nclass = yes", fillcolor="#399de5"] ;
411 -> 412 ;
413 [label="gini = 0.0\nsamples = 18\nvalue = [18, 0]\nclass = no", fillcolor="#e58139"] ;
411 -> 413 ;
414 [label="age <= 229.5\ngini = 0.271\nsamples = 62\nvalue = [52, 10]\nclass = no", fillcolor="#ea995f"] ;
400 -> 414 ;
415 [label="gini = 0.0\nsamples = 3\nvalue = [0, 3]\nclass = yes", fillcolor="#399de5"] ;
414 -> 415 ;
416 [label="age <= 271.0\ngini = 0.209\nsamples = 59\nvalue = [52, 7]\nclass = no", fillcolor="#e89254"] ;
414 -> 416 ;
417 [label="gini = 0.0\nsamples = 13\nvalue = [13, 0]\nclass = no", fillcolor="#e58139"] ;
416 -> 417 ;
418 [label="age <= 272.5\ngini = 0.258\nsamples = 46\nvalue = [39, 7]\nclass = no", fillcolor="#ea985d"] ;
416 -> 418 ;
419 [label="gini = 0.0\nsamples = 1\nvalue = [0, 1]\nclass = yes", fillcolor="#399de5"] ;
418 -> 419 ;
420 [label="age <= 347.5\ngini = 0.231\nsamples = 45\nvalue = [39, 6]\nclass = no", fillcolor="#e99457"] ;
418 -> 420 ;
421 [label="age <= 336.0\ngini = 0.284\nsamples = 35\nvalue = [29, 6]\nclass = no", fillcolor="#ea9b62"] ;
420 -> 421 ;
422 [label="age <= 312.5\ngini = 0.175\nsamples = 31\nvalue = [28, 3]\nclass = no", fillcolor="#e88e4e"] ;
421 -> 422 ;
423 [label="age <= 303.0\ngini = 0.305\nsamples = 16\nvalue = [13, 3]\nclass = no", fillcolor="#eb9e67"] ;
422 -> 423 ;
424 [label="age <= 284.5\ngini = 0.231\nsamples = 15\nvalue = [13, 2]\nclass = no", fillcolor="#e99457"] ;
423 -> 424 ;
425 [label="age <= 279.5\ngini = 0.153\nsamples = 12\nvalue = [11, 1]\nclass = no", fillcolor="#e78c4b"] ;
424 -> 425 ;
426 [label="gini = 0.0\nsamples = 5\nvalue = [5, 0]\nclass = no", fillcolor="#e58139"] ;
425 -> 426 ;
427 [label="age <= 280.5\ngini = 0.245\nsamples = 7\nvalue = [6, 1]\nclass = no", fillcolor="#e9965a"] ;
425 -> 427 ;
428 [label="sibsp <= 0.5\ngini = 0.444\nsamples = 3\nvalue = [2, 1]\nclass = no", fillcolor="#f2c09c"] ;
427 -> 428 ;
429 [label="gini = 0.0\nsamples = 1\nvalue = [0, 1]\nclass = yes", fillcolor="#399de5"] ;
428 -> 429 ;
430 [label="gini = 0.0\nsamples = 2\nvalue = [2, 0]\nclass = no", fillcolor="#e58139"] ;
428 -> 430 ;
431 [label="gini = 0.0\nsamples = 4\nvalue = [4, 0]\nclass = no", fillcolor="#e58139"] ;
427 -> 431 ;
432 [label="sibsp <= 0.5\ngini = 0.444\nsamples = 3\nvalue = [2, 1]\nclass = no", fillcolor="#f2c09c"] ;
424 -> 432 ;
433 [label="gini = 0.0\nsamples = 2\nvalue = [2, 0]\nclass = no", fillcolor="#e58139"] ;
432 -> 433 ;
434 [label="gini = 0.0\nsamples = 1\nvalue = [0, 1]\nclass = yes", fillcolor="#399de5"] ;
432 -> 434 ;
435 [label="gini = 0.0\nsamples = 1\nvalue = [0, 1]\nclass = yes", fillcolor="#399de5"] ;
423 -> 435 ;
436 [label="gini = 0.0\nsamples = 15\nvalue = [15, 0]\nclass = no", fillcolor="#e58139"] ;
422 -> 436 ;
437 [label="sibsp <= 0.5\ngini = 0.375\nsamples = 4\nvalue = [1, 3]\nclass = yes", fillcolor="#7bbeee"] ;
421 -> 437 ;
438 [label="gini = 0.0\nsamples = 3\nvalue = [0, 3]\nclass = yes", fillcolor="#399de5"] ;
437 -> 438 ;
439 [label="gini = 0.0\nsamples = 1\nvalue = [1, 0]\nclass = no", fillcolor="#e58139"] ;
437 -> 439 ;
440 [label="gini = 0.0\nsamples = 10\nvalue = [10, 0]\nclass = no", fillcolor="#e58139"] ;
420 -> 440 ;
}