digraph Tree {
node [shape=box, style="filled, rounded", color="black", fontname=helvetica] ;
edge [fontname=helvetica] ;
0 [label="sex <= 0.5\ngini = 0.468\nsamples = 916\nvalue = [573, 343]\nclass = no", fillcolor="#f5ccb0"] ;
1 [label="pclass <= 1.5\ngini = 0.401\nsamples = 324\nvalue = [90, 234]\nclass = yes", fillcolor="#85c3ef"] ;
0 -> 1 [labeldistance=2.5, labelangle=45, headlabel="True"] ;
2 [label="pclass <= 0.5\ngini = 0.118\nsamples = 174\nvalue = [11, 163]\nclass = yes", fillcolor="#46a4e7"] ;
1 -> 2 ;
3 [label="age <= 72.5\ngini = 0.061\nsamples = 95\nvalue = [3, 92]\nclass = yes", fillcolor="#3fa0e6"] ;
2 -> 3 ;
4 [label="age <= 48.5\ngini = 0.045\nsamples = 87\nvalue = [2, 85]\nclass = yes", fillcolor="#3e9fe6"] ;
3 -> 4 ;
5 [label="age <= 47.5\ngini = 0.075\nsamples = 51\nvalue = [2, 49]\nclass = yes", fillcolor="#41a1e6"] ;
4 -> 5 ;
6 [label="sibsp <= 0.5\ngini = 0.042\nsamples = 47\nvalue = [1, 46]\nclass = yes", fillcolor="#3d9fe6"] ;
5 -> 6 ;
7 [label="gini = 0.0\nsamples = 25\nvalue = [0, 25]\nclass = yes", fillcolor="#399de5"] ;
6 -> 7 ;
8 [label="age <= 26.0\ngini = 0.087\nsamples = 22\nvalue = [1, 21]\nclass = yes", fillcolor="#42a2e6"] ;
6 -> 8 ;
9 [label="age <= 24.5\ngini = 0.165\nsamples = 11\nvalue = [1, 10]\nclass = yes", fillcolor="#4da7e8"] ;
8 -> 9 ;
10 [label="gini = 0.0\nsamples = 9\nvalue = [0, 9]\nclass = yes", fillcolor="#399de5"] ;
9 -> 10 ;
11 [label="gini = 0.5\nsamples = 2\nvalue = [1, 1]\nclass = no", fillcolor="#ffffff"] ;
9 -> 11 ;
12 [label="gini = 0.0\nsamples = 11\nvalue = [0, 11]\nclass = yes", fillcolor="#399de5"] ;
8 -> 12 ;
13 [label="gini = 0.375\nsamples = 4\nvalue = [1, 3]\nclass = yes", fillcolor="#7bbeee"] ;
5 -> 13 ;
14 [label="gini = 0.0\nsamples = 36\nvalue = [0, 36]\nclass = yes", fillcolor="#399de5"] ;
4 -> 14 ;
15 [label="age <= 74.5\ngini = 0.219\nsamples = 8\nvalue = [1, 7]\nclass = yes", fillcolor="#55abe9"] ;
3 -> 15 ;
16 [label="gini = 0.0\nsamples = 1\nvalue = [1, 0]\nclass = no", fillcolor="#e58139"] ;
15 -> 16 ;
17 [label="gini = 0.0\nsamples = 7\nvalue = [0, 7]\nclass = yes", fillcolor="#399de5"] ;
15 -> 17 ;
18 [label="age <= 140.0\ngini = 0.182\nsamples = 79\nvalue = [8, 71]\nclass = yes", fillcolor="#4fa8e8"] ;
2 -> 18 ;
19 [label="sibsp <= 0.5\ngini = 0.167\nsamples = 76\nvalue = [7, 69]\nclass = yes", fillcolor="#4da7e8"] ;
18 -> 19 ;
20 [label="age <= 51.0\ngini = 0.097\nsamples = 39\nvalue = [2, 37]\nclass = yes", fillcolor="#44a2e6"] ;
19 -> 20 ;
21 [label="age <= 49.0\ngini = 0.142\nsamples = 26\nvalue = [2, 24]\nclass = yes", fillcolor="#49a5e7"] ;
20 -> 21 ;
22 [label="age <= 23.0\ngini = 0.077\nsamples = 25\nvalue = [1, 24]\nclass = yes", fillcolor="#41a1e6"] ;
21 -> 22 ;
23 [label="age <= 21.5\ngini = 0.198\nsamples = 9\nvalue = [1, 8]\nclass = yes", fillcolor="#52a9e8"] ;
22 -> 23 ;
24 [label="gini = 0.0\nsamples = 7\nvalue = [0, 7]\nclass = yes", fillcolor="#399de5"] ;
23 -> 24 ;
25 [label="gini = 0.5\nsamples = 2\nvalue = [1, 1]\nclass = no", fillcolor="#ffffff"] ;
23 -> 25 ;
26 [label="gini = 0.0\nsamples = 16\nvalue = [0, 16]\nclass = yes", fillcolor="#399de5"] ;
22 -> 26 ;
27 [label="gini = 0.0\nsamples = 1\nvalue = [1, 0]\nclass = no", fillcolor="#e58139"] ;
21 -> 27 ;
28 [label="gini = 0.0\nsamples = 13\nvalue = [0, 13]\nclass = yes", fillcolor="#399de5"] ;
20 -> 28 ;
29 [label="age <= 68.5\ngini = 0.234\nsamples = 37\nvalue = [5, 32]\nclass = yes", fillcolor="#58ace9"] ;
19 -> 29 ;
30 [label="age <= 27.5\ngini = 0.202\nsamples = 35\nvalue = [4, 31]\nclass = yes", fillcolor="#53aae8"] ;
29 -> 30 ;
31 [label="age <= 25.5\ngini = 0.291\nsamples = 17\nvalue = [3, 14]\nclass = yes", fillcolor="#63b2eb"] ;
30 -> 31 ;
32 [label="age <= 19.5\ngini = 0.133\nsamples = 14\nvalue = [1, 13]\nclass = yes", fillcolor="#48a5e7"] ;
31 -> 32 ;
33 [label="age <= 17.0\ngini = 0.375\nsamples = 4\nvalue = [1, 3]\nclass = yes", fillcolor="#7bbeee"] ;
32 -> 33 ;
34 [label="gini = 0.0\nsamples = 3\nvalue = [0, 3]\nclass = yes", fillcolor="#399de5"] ;
33 -> 34 ;
35 [label="gini = 0.0\nsamples = 1\nvalue = [1, 0]\nclass = no", fillcolor="#e58139"] ;
33 -> 35 ;
36 [label="gini = 0.0\nsamples = 10\nvalue = [0, 10]\nclass = yes", fillcolor="#399de5"] ;
32 -> 36 ;
37 [label="age <= 26.5\ngini = 0.444\nsamples = 3\nvalue = [2, 1]\nclass = no", fillcolor="#f2c09c"] ;
31 -> 37 ;
38 [label="gini = 0.0\nsamples = 1\nvalue = [1, 0]\nclass = no", fillcolor="#e58139"] ;
37 -> 38 ;
39 [label="gini = 0.5\nsamples = 2\nvalue = [1, 1]\nclass = no", fillcolor="#ffffff"] ;
37 -> 39 ;
40 [label="age <= 55.0\ngini = 0.105\nsamples = 18\nvalue = [1, 17]\nclass = yes", fillcolor="#45a3e7"] ;
30 -> 40 ;
41 [label="gini = 0.0\nsamples = 14\nvalue = [0, 14]\nclass = yes", fillcolor="#399de5"] ;
40 -> 41 ;
42 [label="age <= 56.5\ngini = 0.375\nsamples = 4\nvalue = [1, 3]\nclass = yes", fillcolor="#7bbeee"] ;
40 -> 42 ;
43 [label="gini = 0.0\nsamples = 1\nvalue = [1, 0]\nclass = no", fillcolor="#e58139"] ;
42 -> 43 ;
44 [label="gini = 0.0\nsamples = 3\nvalue = [0, 3]\nclass = yes", fillcolor="#399de5"] ;
42 -> 44 ;
45 [label="age <= 91.0\ngini = 0.5\nsamples = 2\nvalue = [1, 1]\nclass = no", fillcolor="#ffffff"] ;
29 -> 45 ;
46 [label="gini = 0.0\nsamples = 1\nvalue = [1, 0]\nclass = no", fillcolor="#e58139"] ;
45 -> 46 ;
47 [label="gini = 0.0\nsamples = 1\nvalue = [0, 1]\nclass = yes", fillcolor="#399de5"] ;
45 -> 47 ;
48 [label="age <= 210.5\ngini = 0.444\nsamples = 3\nvalue = [1, 2]\nclass = yes", fillcolor="#9ccef2"] ;
18 -> 48 ;
49 [label="gini = 0.0\nsamples = 1\nvalue = [1, 0]\nclass = no", fillcolor="#e58139"] ;
48 -> 49 ;
50 [label="gini = 0.0\nsamples = 2\nvalue = [0, 2]\nclass = yes", fillcolor="#399de5"] ;
48 -> 50 ;
51 [label="sibsp <= 2.5\ngini = 0.499\nsamples = 150\nvalue = [79, 71]\nclass = no", fillcolor="#fcf2eb"] ;
1 -> 51 ;
52 [label="age <= 330.5\ngini = 0.5\nsamples = 136\nvalue = [66, 70]\nclass = yes", fillcolor="#f4f9fe"] ;
51 -> 52 ;
53 [label="age <= 17.5\ngini = 0.5\nsamples = 131\nvalue = [66, 65]\nclass = no", fillcolor="#fffdfc"] ;
52 -> 53 ;
54 [label="age <= 6.0\ngini = 0.298\nsamples = 11\nvalue = [2, 9]\nclass = yes", fillcolor="#65b3eb"] ;
53 -> 54 ;
55 [label="gini = 0.0\nsamples = 1\nvalue = [1, 0]\nclass = no", fillcolor="#e58139"] ;
54 -> 55 ;
56 [label="age <= 15.5\ngini = 0.18\nsamples = 10\nvalue = [1, 9]\nclass = yes", fillcolor="#4fa8e8"] ;
54 -> 56 ;
57 [label="age <= 12.5\ngini = 0.32\nsamples = 5\nvalue = [1, 4]\nclass = yes", fillcolor="#6ab6ec"] ;
56 -> 57 ;
58 [label="gini = 0.0\nsamples = 3\nvalue = [0, 3]\nclass = yes", fillcolor="#399de5"] ;
57 -> 58 ;
59 [label="sibsp <= 0.5\ngini = 0.5\nsamples = 2\nvalue = [1, 1]\nclass = no", fillcolor="#ffffff"] ;
57 -> 59 ;
60 [label="gini = 0.0\nsamples = 1\nvalue = [1, 0]\nclass = no", fillcolor="#e58139"] ;
59 -> 60 ;
61 [label="gini = 0.0\nsamples = 1\nvalue = [0, 1]\nclass = yes", fillcolor="#399de5"] ;
59 -> 61 ;
62 [label="gini = 0.0\nsamples = 5\nvalue = [0, 5]\nclass = yes", fillcolor="#399de5"] ;
56 -> 62 ;
63 [label="age <= 213.5\ngini = 0.498\nsamples = 120\nvalue = [64, 56]\nclass = no", fillcolor="#fcefe6"] ;
53 -> 63 ;
64 [label="age <= 27.5\ngini = 0.49\nsamples = 98\nvalue = [56, 42]\nclass = no", fillcolor="#f8e0ce"] ;
63 -> 64 ;
65 [label="age <= 18.5\ngini = 0.498\nsamples = 47\nvalue = [22, 25]\nclass = yes", fillcolor="#e7f3fc"] ;
64 -> 65 ;
66 [label="gini = 0.444\nsamples = 3\nvalue = [2, 1]\nclass = no", fillcolor="#f2c09c"] ;
65 -> 66 ;
67 [label="age <= 25.5\ngini = 0.496\nsamples = 44\nvalue = [20, 24]\nclass = yes", fillcolor="#deeffb"] ;
65 -> 67 ;
68 [label="age <= 24.5\ngini = 0.498\nsamples = 36\nvalue = [17, 19]\nclass = yes", fillcolor="#eaf5fc"] ;
67 -> 68 ;
69 [label="gini = 0.493\nsamples = 34\nvalue = [15, 19]\nclass = yes", fillcolor="#d5eafa"] ;
68 -> 69 ;
70 [label="gini = 0.0\nsamples = 2\nvalue = [2, 0]\nclass = no", fillcolor="#e58139"] ;
68 -> 70 ;
71 [label="sibsp <= 0.5\ngini = 0.469\nsamples = 8\nvalue = [3, 5]\nclass = yes", fillcolor="#b0d8f5"] ;
67 -> 71 ;
72 [label="gini = 0.32\nsamples = 5\nvalue = [1, 4]\nclass = yes", fillcolor="#6ab6ec"] ;
71 -> 72 ;
73 [label="gini = 0.444\nsamples = 3\nvalue = [2, 1]\nclass = no", fillcolor="#f2c09c"] ;
71 -> 73 ;
74 [label="age <= 29.5\ngini = 0.444\nsamples = 51\nvalue = [34, 17]\nclass = no", fillcolor="#f2c09c"] ;
64 -> 74 ;
75 [label="gini = 0.0\nsamples = 5\nvalue = [5, 0]\nclass = no", fillcolor="#e58139"] ;
74 -> 75 ;
76 [label="age <= 201.0\ngini = 0.466\nsamples = 46\nvalue = [29, 17]\nclass = no", fillcolor="#f4cbad"] ;
74 -> 76 ;
77 [label="age <= 189.5\ngini = 0.474\nsamples = 44\nvalue = [27, 17]\nclass = no", fillcolor="#f5d0b6"] ;
76 -> 77 ;
78 [label="gini = 0.459\nsamples = 42\nvalue = [27, 15]\nclass = no", fillcolor="#f3c7a7"] ;
77 -> 78 ;
79 [label="gini = 0.0\nsamples = 2\nvalue = [0, 2]\nclass = yes", fillcolor="#399de5"] ;
77 -> 79 ;
80 [label="gini = 0.0\nsamples = 2\nvalue = [2, 0]\nclass = no", fillcolor="#e58139"] ;
76 -> 80 ;
81 [label="age <= 222.0\ngini = 0.463\nsamples = 22\nvalue = [8, 14]\nclass = yes", fillcolor="#aad5f4"] ;
63 -> 81 ;
82 [label="gini = 0.0\nsamples = 4\nvalue = [0, 4]\nclass = yes", fillcolor="#399de5"] ;
81 -> 82 ;
83 [label="age <= 245.0\ngini = 0.494\nsamples = 18\nvalue = [8, 10]\nclass = yes", fillcolor="#d7ebfa"] ;
81 -> 83 ;
84 [label="sibsp <= 0.5\ngini = 0.375\nsamples = 4\nvalue = [3, 1]\nclass = no", fillcolor="#eeab7b"] ;
83 -> 84 ;
85 [label="age <= 228.5\ngini = 0.5\nsamples = 2\nvalue = [1, 1]\nclass = no", fillcolor="#ffffff"] ;
84 -> 85 ;
86 [label="gini = 0.0\nsamples = 1\nvalue = [1, 0]\nclass = no", fillcolor="#e58139"] ;
85 -> 86 ;
87 [label="gini = 0.0\nsamples = 1\nvalue = [0, 1]\nclass = yes", fillcolor="#399de5"] ;
85 -> 87 ;
88 [label="gini = 0.0\nsamples = 2\nvalue = [2, 0]\nclass = no", fillcolor="#e58139"] ;
84 -> 88 ;
89 [label="age <= 323.5\ngini = 0.459\nsamples = 14\nvalue = [5, 9]\nclass = yes", fillcolor="#a7d3f3"] ;
83 -> 89 ;
90 [label="sibsp <= 0.5\ngini = 0.426\nsamples = 13\nvalue = [4, 9]\nclass = yes", fillcolor="#91c9f1"] ;
89 -> 90 ;
91 [label="gini = 0.463\nsamples = 11\nvalue = [4, 7]\nclass = yes", fillcolor="#aad5f4"] ;
90 -> 91 ;
92 [label="gini = 0.0\nsamples = 2\nvalue = [0, 2]\nclass = yes", fillcolor="#399de5"] ;
90 -> 92 ;
93 [label="gini = 0.0\nsamples = 1\nvalue = [1, 0]\nclass = no", fillcolor="#e58139"] ;
89 -> 93 ;
94 [label="gini = 0.0\nsamples = 5\nvalue = [0, 5]\nclass = yes", fillcolor="#399de5"] ;
52 -> 94 ;
95 [label="age <= 34.0\ngini = 0.133\nsamples = 14\nvalue = [13, 1]\nclass = no", fillcolor="#e78b48"] ;
51 -> 95 ;
96 [label="age <= 17.5\ngini = 0.375\nsamples = 4\nvalue = [3, 1]\nclass = no", fillcolor="#eeab7b"] ;
95 -> 96 ;
97 [label="gini = 0.0\nsamples = 3\nvalue = [3, 0]\nclass = no", fillcolor="#e58139"] ;
96 -> 97 ;
98 [label="gini = 0.0\nsamples = 1\nvalue = [0, 1]\nclass = yes", fillcolor="#399de5"] ;
96 -> 98 ;
99 [label="gini = 0.0\nsamples = 10\nvalue = [10, 0]\nclass = no", fillcolor="#e58139"] ;
95 -> 99 ;
100 [label="pclass <= 0.5\ngini = 0.3\nsamples = 592\nvalue = [483, 109]\nclass = no", fillcolor="#eb9d66"] ;
0 -> 100 [labeldistance=2.5, labelangle=-45, headlabel="False"] ;
101 [label="age <= 9.5\ngini = 0.46\nsamples = 109\nvalue = [70, 39]\nclass = no", fillcolor="#f3c7a7"] ;
100 -> 101 ;
102 [label="gini = 0.0\nsamples = 6\nvalue = [6, 0]\nclass = no", fillcolor="#e58139"] ;
101 -> 102 ;
103 [label="age <= 19.0\ngini = 0.471\nsamples = 103\nvalue = [64, 39]\nclass = no", fillcolor="#f5ceb2"] ;
101 -> 103 ;
104 [label="gini = 0.0\nsamples = 3\nvalue = [0, 3]\nclass = yes", fillcolor="#399de5"] ;
103 -> 104 ;
105 [label="sibsp <= 0.5\ngini = 0.461\nsamples = 100\nvalue = [64, 36]\nclass = no", fillcolor="#f4c8a8"] ;
103 -> 105 ;
106 [label="age <= 23.5\ngini = 0.427\nsamples = 68\nvalue = [47, 21]\nclass = no", fillcolor="#f1b991"] ;
105 -> 106 ;
107 [label="gini = 0.0\nsamples = 1\nvalue = [0, 1]\nclass = yes", fillcolor="#399de5"] ;
106 -> 107 ;
108 [label="age <= 88.0\ngini = 0.419\nsamples = 67\nvalue = [47, 20]\nclass = no", fillcolor="#f0b78d"] ;
106 -> 108 ;
109 [label="age <= 68.5\ngini = 0.388\nsamples = 57\nvalue = [42, 15]\nclass = no", fillcolor="#eeae80"] ;
108 -> 109 ;
110 [label="age <= 62.5\ngini = 0.425\nsamples = 49\nvalue = [34, 15]\nclass = no", fillcolor="#f0b990"] ;
109 -> 110 ;
111 [label="age <= 33.5\ngini = 0.381\nsamples = 43\nvalue = [32, 11]\nclass = no", fillcolor="#eeac7d"] ;
110 -> 111 ;
112 [label="gini = 0.18\nsamples = 10\nvalue = [9, 1]\nclass = no", fillcolor="#e88f4f"] ;
111 -> 112 ;
113 [label="gini = 0.422\nsamples = 33\nvalue = [23, 10]\nclass = no", fillcolor="#f0b88f"] ;
111 -> 113 ;
114 [label="age <= 65.5\ngini = 0.444\nsamples = 6\nvalue = [2, 4]\nclass = yes", fillcolor="#9ccef2"] ;
110 -> 114 ;
115 [label="gini = 0.0\nsamples = 3\nvalue = [0, 3]\nclass = yes", fillcolor="#399de5"] ;
114 -> 115 ;
116 [label="gini = 0.444\nsamples = 3\nvalue = [2, 1]\nclass = no", fillcolor="#f2c09c"] ;
114 -> 116 ;
117 [label="gini = 0.0\nsamples = 8\nvalue = [8, 0]\nclass = no", fillcolor="#e58139"] ;
109 -> 117 ;
118 [label="age <= 186.5\ngini = 0.5\nsamples = 10\nvalue = [5, 5]\nclass = no", fillcolor="#ffffff"] ;
108 -> 118 ;
119 [label="gini = 0.0\nsamples = 3\nvalue = [0, 3]\nclass = yes", fillcolor="#399de5"] ;
118 -> 119 ;
120 [label="age <= 292.0\ngini = 0.408\nsamples = 7\nvalue = [5, 2]\nclass = no", fillcolor="#efb388"] ;
118 -> 120 ;
121 [label="age <= 189.0\ngini = 0.5\nsamples = 4\nvalue = [2, 2]\nclass = no", fillcolor="#ffffff"] ;
120 -> 121 ;
122 [label="gini = 0.0\nsamples = 1\nvalue = [1, 0]\nclass = no", fillcolor="#e58139"] ;
121 -> 122 ;
123 [label="gini = 0.444\nsamples = 3\nvalue = [1, 2]\nclass = yes", fillcolor="#9ccef2"] ;
121 -> 123 ;
124 [label="gini = 0.0\nsamples = 3\nvalue = [3, 0]\nclass = no", fillcolor="#e58139"] ;
120 -> 124 ;
125 [label="age <= 73.0\ngini = 0.498\nsamples = 32\nvalue = [17, 15]\nclass = no", fillcolor="#fcf0e8"] ;
105 -> 125 ;
126 [label="age <= 64.5\ngini = 0.5\nsamples = 30\nvalue = [15, 15]\nclass = no", fillcolor="#ffffff"] ;
125 -> 126 ;
127 [label="age <= 60.5\ngini = 0.497\nsamples = 26\nvalue = [14, 12]\nclass = no", fillcolor="#fbede3"] ;
126 -> 127 ;
128 [label="age <= 59.5\ngini = 0.499\nsamples = 23\nvalue = [11, 12]\nclass = yes", fillcolor="#eff7fd"] ;
127 -> 128 ;
129 [label="age <= 57.5\ngini = 0.499\nsamples = 21\nvalue = [11, 10]\nclass = no", fillcolor="#fdf4ed"] ;
128 -> 129 ;
130 [label="gini = 0.499\nsamples = 19\nvalue = [9, 10]\nclass = yes", fillcolor="#ebf5fc"] ;
129 -> 130 ;
131 [label="gini = 0.0\nsamples = 2\nvalue = [2, 0]\nclass = no", fillcolor="#e58139"] ;
129 -> 131 ;
132 [label="gini = 0.0\nsamples = 2\nvalue = [0, 2]\nclass = yes", fillcolor="#399de5"] ;
128 -> 132 ;
133 [label="gini = 0.0\nsamples = 3\nvalue = [3, 0]\nclass = no", fillcolor="#e58139"] ;
127 -> 133 ;
134 [label="age <= 66.5\ngini = 0.375\nsamples = 4\nvalue = [1, 3]\nclass = yes", fillcolor="#7bbeee"] ;
126 -> 134 ;
135 [label="gini = 0.0\nsamples = 2\nvalue = [0, 2]\nclass = yes", fillcolor="#399de5"] ;
134 -> 135 ;
136 [label="age <= 69.0\ngini = 0.5\nsamples = 2\nvalue = [1, 1]\nclass = no", fillcolor="#ffffff"] ;
134 -> 136 ;
137 [label="gini = 0.0\nsamples = 1\nvalue = [1, 0]\nclass = no", fillcolor="#e58139"] ;
136 -> 137 ;
138 [label="gini = 0.0\nsamples = 1\nvalue = [0, 1]\nclass = yes", fillcolor="#399de5"] ;
136 -> 138 ;
139 [label="gini = 0.0\nsamples = 2\nvalue = [2, 0]\nclass = no", fillcolor="#e58139"] ;
125 -> 139 ;
140 [label="age <= 42.5\ngini = 0.248\nsamples = 483\nvalue = [413, 70]\nclass = no", fillcolor="#e9965b"] ;
100 -> 140 ;
141 [label="age <= 37.0\ngini = 0.299\nsamples = 262\nvalue = [214, 48]\nclass = no", fillcolor="#eb9d65"] ;
140 -> 141 ;
142 [label="sibsp <= 0.5\ngini = 0.263\nsamples = 238\nvalue = [201, 37]\nclass = no", fillcolor="#ea985d"] ;
141 -> 142 ;
143 [label="age <= 35.5\ngini = 0.291\nsamples = 192\nvalue = [158, 34]\nclass = no", fillcolor="#eb9c64"] ;
142 -> 143 ;
144 [label="age <= 32.0\ngini = 0.303\nsamples = 183\nvalue = [149, 34]\nclass = no", fillcolor="#eb9e66"] ;
143 -> 144 ;
145 [label="pclass <= 1.5\ngini = 0.279\nsamples = 167\nvalue = [139, 28]\nclass = no", fillcolor="#ea9a61"] ;
144 -> 145 ;
146 [label="age <= 28.5\ngini = 0.187\nsamples = 48\nvalue = [43, 5]\nclass = no", fillcolor="#e89050"] ;
145 -> 146 ;
147 [label="age <= 24.5\ngini = 0.142\nsamples = 39\nvalue = [36, 3]\nclass = no", fillcolor="#e78c49"] ;
146 -> 147 ;
148 [label="gini = 0.236\nsamples = 22\nvalue = [19, 3]\nclass = no", fillcolor="#e99558"] ;
147 -> 148 ;
149 [label="gini = 0.0\nsamples = 17\nvalue = [17, 0]\nclass = no", fillcolor="#e58139"] ;
147 -> 149 ;
150 [label="age <= 29.5\ngini = 0.346\nsamples = 9\nvalue = [7, 2]\nclass = no", fillcolor="#eca572"] ;
146 -> 150 ;
151 [label="gini = 0.5\nsamples = 2\nvalue = [1, 1]\nclass = no", fillcolor="#ffffff"] ;
150 -> 151 ;
152 [label="gini = 0.245\nsamples = 7\nvalue = [6, 1]\nclass = no", fillcolor="#e9965a"] ;
150 -> 152 ;
153 [label="age <= 16.0\ngini = 0.312\nsamples = 119\nvalue = [96, 23]\nclass = no", fillcolor="#eb9f68"] ;
145 -> 153 ;
154 [label="gini = 0.0\nsamples = 1\nvalue = [0, 1]\nclass = yes", fillcolor="#399de5"] ;
153 -> 154 ;
155 [label="age <= 24.5\ngini = 0.303\nsamples = 118\nvalue = [96, 22]\nclass = no", fillcolor="#eb9e66"] ;
153 -> 155 ;
156 [label="gini = 0.23\nsamples = 68\nvalue = [59, 9]\nclass = no", fillcolor="#e99457"] ;
155 -> 156 ;
157 [label="gini = 0.385\nsamples = 50\nvalue = [37, 13]\nclass = no", fillcolor="#eead7f"] ;
155 -> 157 ;
158 [label="pclass <= 1.5\ngini = 0.469\nsamples = 16\nvalue = [10, 6]\nclass = no", fillcolor="#f5cdb0"] ;
144 -> 158 ;
159 [label="age <= 34.5\ngini = 0.444\nsamples = 3\nvalue = [2, 1]\nclass = no", fillcolor="#f2c09c"] ;
158 -> 159 ;
160 [label="gini = 0.0\nsamples = 1\nvalue = [0, 1]\nclass = yes", fillcolor="#399de5"] ;
159 -> 160 ;
161 [label="gini = 0.0\nsamples = 2\nvalue = [2, 0]\nclass = no", fillcolor="#e58139"] ;
159 -> 161 ;
162 [label="age <= 34.5\ngini = 0.473\nsamples = 13\nvalue = [8, 5]\nclass = no", fillcolor="#f5d0b5"] ;
158 -> 162 ;
163 [label="gini = 0.375\nsamples = 4\nvalue = [3, 1]\nclass = no", fillcolor="#eeab7b"] ;
162 -> 163 ;
164 [label="gini = 0.494\nsamples = 9\nvalue = [5, 4]\nclass = no", fillcolor="#fae6d7"] ;
162 -> 164 ;
165 [label="gini = 0.0\nsamples = 9\nvalue = [9, 0]\nclass = no", fillcolor="#e58139"] ;
143 -> 165 ;
166 [label="age <= 6.0\ngini = 0.122\nsamples = 46\nvalue = [43, 3]\nclass = no", fillcolor="#e78a47"] ;
142 -> 166 ;
167 [label="pclass <= 1.5\ngini = 0.444\nsamples = 3\nvalue = [2, 1]\nclass = no", fillcolor="#f2c09c"] ;
166 -> 167 ;
168 [label="gini = 0.0\nsamples = 1\nvalue = [0, 1]\nclass = yes", fillcolor="#399de5"] ;
167 -> 168 ;
169 [label="gini = 0.0\nsamples = 2\nvalue = [2, 0]\nclass = no", fillcolor="#e58139"] ;
167 -> 169 ;
170 [label="age <= 24.5\ngini = 0.089\nsamples = 43\nvalue = [41, 2]\nclass = no", fillcolor="#e68743"] ;
166 -> 170 ;
171 [label="gini = 0.0\nsamples = 25\nvalue = [25, 0]\nclass = no", fillcolor="#e58139"] ;
170 -> 171 ;
172 [label="sibsp <= 2.5\ngini = 0.198\nsamples = 18\nvalue = [16, 2]\nclass = no", fillcolor="#e89152"] ;
170 -> 172 ;
173 [label="age <= 26.0\ngini = 0.117\nsamples = 16\nvalue = [15, 1]\nclass = no", fillcolor="#e78946"] ;
172 -> 173 ;
174 [label="pclass <= 1.5\ngini = 0.375\nsamples = 4\nvalue = [3, 1]\nclass = no", fillcolor="#eeab7b"] ;
173 -> 174 ;
175 [label="gini = 0.0\nsamples = 1\nvalue = [1, 0]\nclass = no", fillcolor="#e58139"] ;
174 -> 175 ;
176 [label="gini = 0.444\nsamples = 3\nvalue = [2, 1]\nclass = no", fillcolor="#f2c09c"] ;
174 -> 176 ;
177 [label="gini = 0.0\nsamples = 12\nvalue = [12, 0]\nclass = no", fillcolor="#e58139"] ;
173 -> 177 ;
178 [label="age <= 31.5\ngini = 0.5\nsamples = 2\nvalue = [1, 1]\nclass = no", fillcolor="#ffffff"] ;
172 -> 178 ;
179 [label="gini = 0.0\nsamples = 1\nvalue = [0, 1]\nclass = yes", fillcolor="#399de5"] ;
178 -> 179 ;
180 [label="gini = 0.0\nsamples = 1\nvalue = [1, 0]\nclass = no", fillcolor="#e58139"] ;
178 -> 180 ;
181 [label="pclass <= 1.5\ngini = 0.497\nsamples = 24\nvalue = [13, 11]\nclass = no", fillcolor="#fbece1"] ;
141 -> 181 ;
182 [label="age <= 40.0\ngini = 0.278\nsamples = 6\nvalue = [1, 5]\nclass = yes", fillcolor="#61b1ea"] ;
181 -> 182 ;
183 [label="gini = 0.0\nsamples = 4\nvalue = [0, 4]\nclass = yes", fillcolor="#399de5"] ;
182 -> 183 ;
184 [label="age <= 41.5\ngini = 0.5\nsamples = 2\nvalue = [1, 1]\nclass = no", fillcolor="#ffffff"] ;
182 -> 184 ;
185 [label="gini = 0.0\nsamples = 1\nvalue = [1, 0]\nclass = no", fillcolor="#e58139"] ;
184 -> 185 ;
186 [label="gini = 0.0\nsamples = 1\nvalue = [0, 1]\nclass = yes", fillcolor="#399de5"] ;
184 -> 186 ;
187 [label="sibsp <= 0.5\ngini = 0.444\nsamples = 18\nvalue = [12, 6]\nclass = no", fillcolor="#f2c09c"] ;
181 -> 187 ;
188 [label="gini = 0.298\nsamples = 11\nvalue = [9, 2]\nclass = no", fillcolor="#eb9d65"] ;
187 -> 188 ;
189 [label="sibsp <= 2.5\ngini = 0.49\nsamples = 7\nvalue = [3, 4]\nclass = yes", fillcolor="#cee6f8"] ;
187 -> 189 ;
190 [label="gini = 0.0\nsamples = 3\nvalue = [0, 3]\nclass = yes", fillcolor="#399de5"] ;
189 -> 190 ;
191 [label="sibsp <= 4.5\ngini = 0.375\nsamples = 4\nvalue = [3, 1]\nclass = no", fillcolor="#eeab7b"] ;
189 -> 191 ;
192 [label="age <= 38.5\ngini = 0.5\nsamples = 2\nvalue = [1, 1]\nclass = no", fillcolor="#ffffff"] ;
191 -> 192 ;
193 [label="gini = 0.0\nsamples = 1\nvalue = [1, 0]\nclass = no", fillcolor="#e58139"] ;
192 -> 193 ;
194 [label="gini = 0.0\nsamples = 1\nvalue = [0, 1]\nclass = yes", fillcolor="#399de5"] ;
192 -> 194 ;
195 [label="gini = 0.0\nsamples = 2\nvalue = [2, 0]\nclass = no", fillcolor="#e58139"] ;
191 -> 195 ;
196 [label="age <= 108.5\ngini = 0.179\nsamples = 221\nvalue = [199, 22]\nclass = no", fillcolor="#e88f4f"] ;
140 -> 196 ;
197 [label="age <= 56.5\ngini = 0.024\nsamples = 84\nvalue = [83, 1]\nclass = no", fillcolor="#e5833b"] ;
196 -> 197 ;
198 [label="gini = 0.0\nsamples = 50\nvalue = [50, 0]\nclass = no", fillcolor="#e58139"] ;
197 -> 198 ;
199 [label="age <= 57.5\ngini = 0.057\nsamples = 34\nvalue = [33, 1]\nclass = no", fillcolor="#e6853f"] ;
197 -> 199 ;
200 [label="gini = 0.5\nsamples = 2\nvalue = [1, 1]\nclass = no", fillcolor="#ffffff"] ;
199 -> 200 ;
201 [label="gini = 0.0\nsamples = 32\nvalue = [32, 0]\nclass = no", fillcolor="#e58139"] ;
199 -> 201 ;
202 [label="pclass <= 1.5\ngini = 0.26\nsamples = 137\nvalue = [116, 21]\nclass = no", fillcolor="#ea985d"] ;
196 -> 202 ;
203 [label="age <= 116.0\ngini = 0.5\nsamples = 12\nvalue = [6, 6]\nclass = no", fillcolor="#ffffff"] ;
202 -> 203 ;
204 [label="sibsp <= 0.5\ngini = 0.278\nsamples = 6\nvalue = [5, 1]\nclass = no", fillcolor="#ea9a61"] ;
203 -> 204 ;
205 [label="gini = 0.5\nsamples = 2\nvalue = [1, 1]\nclass = no", fillcolor="#ffffff"] ;
204 -> 205 ;
206 [label="gini = 0.0\nsamples = 4\nvalue = [4, 0]\nclass = no", fillcolor="#e58139"] ;
204 -> 206 ;
207 [label="age <= 236.5\ngini = 0.278\nsamples = 6\nvalue = [1, 5]\nclass = yes", fillcolor="#61b1ea"] ;
203 -> 207 ;
208 [label="gini = 0.0\nsamples = 4\nvalue = [0, 4]\nclass = yes", fillcolor="#399de5"] ;
207 -> 208 ;
209 [label="age <= 288.0\ngini = 0.5\nsamples = 2\nvalue = [1, 1]\nclass = no", fillcolor="#ffffff"] ;
207 -> 209 ;
210 [label="gini = 0.0\nsamples = 1\nvalue = [1, 0]\nclass = no", fillcolor="#e58139"] ;
209 -> 210 ;
211 [label="gini = 0.0\nsamples = 1\nvalue = [0, 1]\nclass = yes", fillcolor="#399de5"] ;
209 -> 211 ;
212 [label="age <= 336.0\ngini = 0.211\nsamples = 125\nvalue = [110, 15]\nclass = no", fillcolor="#e99254"] ;
202 -> 212 ;
213 [label="age <= 287.0\ngini = 0.19\nsamples = 113\nvalue = [101, 12]\nclass = no", fillcolor="#e89051"] ;
212 -> 213 ;
214 [label="age <= 284.5\ngini = 0.221\nsamples = 95\nvalue = [83, 12]\nclass = no", fillcolor="#e99356"] ;
213 -> 214 ;
215 [label="age <= 182.0\ngini = 0.207\nsamples = 94\nvalue = [83, 11]\nclass = no", fillcolor="#e89253"] ;
214 -> 215 ;
216 [label="age <= 117.5\ngini = 0.122\nsamples = 46\nvalue = [43, 3]\nclass = no", fillcolor="#e78a47"] ;
215 -> 216 ;
217 [label="gini = 0.32\nsamples = 10\nvalue = [8, 2]\nclass = no", fillcolor="#eca06a"] ;
216 -> 217 ;
218 [label="gini = 0.054\nsamples = 36\nvalue = [35, 1]\nclass = no", fillcolor="#e6853f"] ;
216 -> 218 ;
219 [label="age <= 188.5\ngini = 0.278\nsamples = 48\nvalue = [40, 8]\nclass = no", fillcolor="#ea9a61"] ;
215 -> 219 ;
220 [label="gini = 0.0\nsamples = 1\nvalue = [0, 1]\nclass = yes", fillcolor="#399de5"] ;
219 -> 220 ;
221 [label="gini = 0.254\nsamples = 47\nvalue = [40, 7]\nclass = no", fillcolor="#ea975c"] ;
219 -> 221 ;
222 [label="gini = 0.0\nsamples = 1\nvalue = [0, 1]\nclass = yes", fillcolor="#399de5"] ;
214 -> 222 ;
223 [label="gini = 0.0\nsamples = 18\nvalue = [18, 0]\nclass = no", fillcolor="#e58139"] ;
213 -> 223 ;
224 [label="age <= 346.5\ngini = 0.375\nsamples = 12\nvalue = [9, 3]\nclass = no", fillcolor="#eeab7b"] ;
212 -> 224 ;
225 [label="sibsp <= 0.5\ngini = 0.375\nsamples = 4\nvalue = [1, 3]\nclass = yes", fillcolor="#7bbeee"] ;
224 -> 225 ;
226 [label="gini = 0.0\nsamples = 3\nvalue = [0, 3]\nclass = yes", fillcolor="#399de5"] ;
225 -> 226 ;
227 [label="gini = 0.0\nsamples = 1\nvalue = [1, 0]\nclass = no", fillcolor="#e58139"] ;
225 -> 227 ;
228 [label="gini = 0.0\nsamples = 8\nvalue = [8, 0]\nclass = no", fillcolor="#e58139"] ;
224 -> 228 ;
}